%YAML:1.0
my_svm: !!opencv-ml-svm
   svm_type: C_SVC
   kernel: { type:LINEAR }
   C: 2.6699999999999999e+000
   term_criteria: { epsilon:1.1920928955078125e-007, iterations:1000 }
   var_all: 79380
   var_count: 79380
   class_count: 2
   class_labels: !!opencv-matrix
      rows: 1
      cols: 2
      dt: i
      data: [ 0, 1 ]
   sv_total: 1
   support_vectors:
      - [ -2.90258555e-003, 4.89040860e-004, 3.16315622e-004,
          6.22070977e-004, -6.40896731e-004, 5.61694382e-004,
          7.11666653e-004, 4.36768954e-004, -2.96589942e-003,
          -1.95239577e-003, 5.15073654e-004, 9.25124798e-004,
          6.61136815e-004, -9.23896441e-004, -1.08195272e-005,
          7.78107613e-004, 2.77377781e-004, -1.85735559e-003,
          2.91662000e-004, 5.61671855e-004, 3.68420122e-004,
          6.88421831e-004, -6.00174360e-004, 5.22449613e-004,
          9.18366364e-004, 7.95467582e-004, 2.04394019e-004,
          9.83156846e-004, 6.32442883e-004, 9.50222602e-004,
          4.24936530e-004, 2.56996980e-004, 1.28585743e-004,
          9.98319825e-004, 9.05480818e-004, 9.11239826e-004,
          -2.10455572e-003, 2.49335892e-004, 1.28015026e-003,
          1.09626760e-003, -7.95563101e-004, 2.54515035e-004,
          9.21290659e-004, 3.62154708e-004, -2.15074350e-003,
          -1.42452342e-003, 2.85518821e-004, 1.18302600e-003,
          1.34209206e-003, 8.57164443e-004, 1.14586938e-003,
          2.38558161e-003, 1.52664026e-003, -1.48018915e-003,
          5.27238299e-004, 9.36003227e-004, 1.21277757e-003,
          1.03253231e-003, -1.82598736e-003, -2.56312924e-004,
          7.91185535e-004, 8.13888852e-004, 8.07583565e-004,
          3.94807226e-004, 9.06580070e-004, 1.94549363e-003,
          1.09292637e-003, 8.30656791e-005, 7.18763389e-004,
          2.05974956e-003, 1.56984862e-003, 7.86016812e-004,
          -1.01850776e-003, 5.63549875e-005, 4.20679484e-004,
          3.36387660e-004, -7.56178983e-004, 2.21385504e-004,
          1.01426966e-003, 7.96828419e-004, -7.17050920e-004,
          -1.92786939e-003, 1.28392521e-005, -2.86382237e-005,
          5.23011957e-004, -2.25601631e-004, 3.05725785e-004,
          -5.47686031e-005, 4.05601721e-004, -1.79493125e-003,
          4.14390612e-004, 4.93450614e-004, 1.00695260e-003,
          8.07044853e-004, -9.73148330e-004, 8.12186569e-004,
          1.69448322e-003, 1.51463982e-003, 7.39484909e-004,
          -3.45271343e-004, 3.79192134e-005, 4.29049396e-004,
          1.44537538e-003, -3.49239650e-004, 1.24827807e-003,
          8.46655690e-004, 1.06459367e-003, -5.76180719e-005,
          -1.44340319e-003, 8.39169370e-004, 9.32786323e-004,
          1.66553911e-003, 1.24253531e-003, 1.59446325e-004,
          6.99392695e-004, 3.41942388e-004, -1.61037419e-003,
          -1.52371684e-003, 1.12175220e-003, 5.44668350e-004,
          1.24917901e-003, -2.27076336e-004, 2.27629353e-004,
          7.63578690e-004, 6.02464657e-004, -1.48368382e-003,
          -1.06742745e-003, -1.60749987e-004, 7.47461803e-004,
          1.71676825e-003, 1.45029786e-004, 9.35591001e-004,
          7.21805496e-004, 2.66457151e-004, -7.47763668e-004,
          -8.26141448e-004, 1.19332421e-004, 7.40573218e-004,
          7.76285538e-004, -8.82477907e-004, 7.11733650e-004,
          7.00315461e-004, 1.14001319e-004, -6.89162232e-004,
          -4.55524074e-004, 9.15644487e-005, 1.00801687e-003,
          7.91034836e-004, -8.01877934e-004, -1.02876904e-004,
          -3.77734046e-004, 4.79866103e-005, -1.23006830e-004,
          -2.56948842e-004, 9.70127439e-005, 1.37790118e-003,
          3.50559676e-005, -2.09873030e-003, 6.85257313e-004,
          1.21398864e-003, 1.51419881e-004, -1.62650424e-004,
          7.85681987e-005, 5.60109329e-004, 1.59263215e-003,
          9.34891577e-004, 9.78161042e-005, 3.73973016e-004,
          1.81210591e-004, 2.70850840e-004, 1.12069531e-004,
          1.29611421e-004, 7.72730447e-004, 1.88958028e-003,
          1.50970009e-003, -2.24776426e-003, 1.02438685e-003,
          1.21050980e-003, 6.26059889e-004, 1.60231924e-004,
          -1.04660568e-004, -3.32932163e-004, 3.17424012e-004,
          6.28782946e-005, -1.48815464e-003, 5.95826423e-004,
          8.64684931e-004, 6.07239723e-004, -4.88846053e-005,
          -5.31041995e-004, -8.50427488e-004, -4.37886658e-004,
          8.02569499e-004, -1.12711557e-003, 2.67834748e-005,
          1.22793092e-004, 5.08948695e-004, -2.66828574e-004,
          8.10711470e-004, 1.43378158e-004, 8.74987280e-004,
          7.52584659e-004, -2.51403288e-003, 1.12793024e-003,
          9.77140269e-004, 3.75155127e-004, 9.46551329e-004,
          1.09158142e-003, -3.97624826e-005, 6.95752737e-004,
          2.56488740e-004, -1.12498587e-003, 4.89702099e-004,
          7.33705645e-004, 5.02561685e-004, 9.34277021e-004,
          -3.91446301e-005, 3.23792017e-004, 3.60121601e-004,
          4.15588613e-004, 1.48057778e-004, -5.94164849e-005,
          2.86599097e-004, 5.28800650e-004, 1.90547125e-005,
          -3.69614107e-004, 9.11727606e-004, 1.63485890e-003,
          4.09552333e-004, -4.00745805e-004, -4.78804664e-004,
          4.26491461e-005, -8.61977023e-005, -1.10639038e-003,
          1.37193489e-003, 4.08875698e-004, 3.23653221e-004,
          1.81095951e-004, -1.08745822e-003, -5.52321580e-005,
          7.97196059e-004, 2.64721661e-004, 8.70040443e-004,
          -1.06595387e-003, 4.11303161e-004, 6.56065706e-004,
          2.74498598e-004, -4.08294902e-004, -6.94137416e-004,
          -8.91513337e-005, -2.36422813e-004, -1.14482106e-003,
          2.45714677e-004, 5.00385417e-004, 1.75314245e-003,
          2.00002702e-004, -9.64205130e-004, 4.53060056e-004,
          7.73971085e-004, 4.63305914e-004, 2.23676427e-004,
          -1.94225562e-004, -1.80605493e-004, 1.18909706e-003,
          -6.55157724e-004, -2.72397511e-003, -5.65631082e-004,
          7.72816187e-004, 2.45095463e-004, -9.77192940e-006,
          -4.54353663e-004, 3.11651034e-004, 1.12832198e-003,
          1.77391790e-004, -1.18846865e-003, 6.23584958e-004,
          9.10806586e-004, 4.83402284e-004, -2.64105445e-004,
          -4.68923768e-004, -8.18540284e-005, 4.55480331e-004,
          -5.23633149e-004, -2.69369828e-003, -4.38379822e-004,
          7.82327726e-004, 3.29625997e-004, -1.49703425e-004,
          4.52677981e-004, -2.67532421e-004, 3.01388442e-004,
          -2.95387406e-004, -2.54806620e-003, -4.94303240e-004,
          1.05142256e-003, 4.13012895e-004, 8.46354698e-004,
          5.37542335e-004, -4.60092087e-005, 8.01327231e-004,
          2.40913141e-004, -1.12025731e-003, -6.03750523e-004,
          4.33754845e-004, -2.23581825e-004, 3.82808881e-004,
          2.48767174e-004, -1.61325021e-004, -2.14369866e-004,
          -7.55635614e-004, -2.51845689e-003, -8.98293394e-004,
          9.50756657e-004, 1.39001408e-004, 4.02830628e-004,
          8.73625220e-004, -2.72160541e-004, -7.84132717e-005,
          -5.90329058e-004, -1.81210099e-003, -5.34821338e-005,
          9.94216884e-004, 7.92977371e-005, 9.89775406e-004,
          4.79128183e-004, 1.11054548e-003, 6.02510001e-004,
          -3.29462200e-004, -1.93419866e-003, -7.89496815e-004,
          4.64900455e-004, 3.41097970e-004, 9.57137017e-005,
          8.45269707e-004, 1.51864917e-003, 7.64514145e-004,
          -9.97189665e-004, -4.97596280e-004, -6.37745543e-004,
          9.15997429e-004, 1.48105784e-003, 9.57286218e-004,
          4.58756025e-004, 2.14818385e-004, 3.62765131e-005,
          -2.92609562e-004, -2.64188461e-003, -4.73913642e-005,
          6.68864930e-004, 2.28244782e-004, 2.61858106e-004,
          8.52661789e-004, 5.63430309e-004, 4.31496970e-004,
          -7.26659026e-004, -1.75348599e-003, -6.48890447e-004,
          2.46712967e-004, 4.99315502e-004, 9.81378835e-004,
          -5.10081532e-004, 1.41446013e-003, 1.04646315e-003,
          -2.88592491e-005, 5.42347552e-004, 3.32532683e-004,
          6.20648032e-004, 1.40736531e-003, 4.71796830e-006,
          -9.92830610e-004, 1.45906140e-003, 7.76718778e-004,
          3.13877390e-005, -4.05857398e-004, 1.77561116e-004,
          6.94213260e-004, 1.03101938e-003, -9.94176720e-004,
          4.44415520e-004, 3.82095430e-004, 4.91420913e-004,
          -6.97136966e-006, -4.67972859e-004, -7.20226148e-004,
          3.78681114e-004, 3.09509865e-004, 6.44427491e-004,
          -4.49871266e-004, 1.03537364e-004, 2.23364506e-004,
          2.73287325e-004, -7.41310068e-004, -1.33637351e-003,
          4.08095104e-004, 2.94605736e-004, -2.46091950e-004,
          -7.84617325e-004, 1.41707365e-003, 1.34373223e-003,
          -3.01995206e-005, 1.52755214e-003, -6.57639815e-004,
          1.18194823e-003, 3.54497024e-004, -9.72671434e-004,
          -1.25138613e-003, 1.41299062e-003, 1.51075236e-003,
          7.63154065e-004, 2.77916179e-003, 5.68850010e-005,
          9.94368922e-004, 1.43090539e-004, -1.28913694e-003,
          -1.49544503e-003, 9.65791623e-005, 4.49489395e-004,
          -4.23911988e-004, 1.32064568e-004, -9.61418205e-004,
          2.84155394e-004, 1.89890081e-004, -1.52040296e-003,
          -1.21782825e-003, 8.72626260e-004, 1.07197615e-003,
          -5.82613029e-005, 9.24867811e-004, -5.86404174e-004,
          -3.27571943e-005, -1.34152855e-004, -1.46981468e-003,
          -2.13923468e-003, -4.67534206e-004, 2.72208737e-004,
          1.14098680e-003, 1.47500506e-003, 3.17522878e-004,
          1.14520713e-004, 6.37024568e-005, -1.98741164e-003,
          -1.05756836e-003, 1.94154018e-005, -5.37734595e-005,
          -5.46956784e-004, 3.44316300e-004, -7.72166357e-004,
          -6.10444622e-005, -7.85892480e-005, -1.15062681e-003,
          -5.35363215e-004, 3.27737798e-004, 2.28387842e-004,
          3.11936165e-004, 4.91960323e-004, -6.05448848e-004,
          -2.89110816e-004, -6.04087109e-005, -6.99232216e-004,
          -5.68004907e-004, 2.59439374e-004, -5.52879428e-005,
          -5.03589050e-004, 1.24433020e-003, -6.04886794e-004,
          5.90480413e-005, -5.04270902e-005, -8.15892068e-004,
          -5.61195426e-004, 1.14037353e-003, 6.52160612e-004,
          -4.42716555e-004, 9.27426445e-004, -7.15906092e-004,
          9.18080914e-004, 8.02751514e-004, -8.59215448e-004,
          -9.95294075e-004, 6.98083604e-004, 9.13525873e-004,
          -5.08349738e-004, 1.39560376e-003, 4.35836228e-005,
          1.76428945e-003, 1.25795696e-003, -1.27579155e-003,
          -1.64351880e-003, 1.16541953e-004, 4.16233233e-004,
          -2.81394838e-004, 1.18268363e-003, -7.86631543e-004,
          4.14005859e-004, 2.86679802e-004, -1.55546924e-003,
          -1.63639488e-003, -2.37940709e-004, 7.00244738e-004,
          2.95073056e-004, 3.64665146e-004, -2.66968535e-004,
          6.51223992e-004, 1.61426851e-005, -1.72928721e-003,
          -3.24843801e-003, 7.03580154e-005, -1.17591146e-004,
          -8.28064629e-004, 1.20957789e-003, 5.02229028e-004,
          1.10838248e-003, 6.37644494e-004, -3.36372526e-003,
          -3.13486834e-003, 1.91425628e-004, 5.15432097e-004,
          1.44698063e-003, 3.43588018e-003, 2.10669730e-003,
          1.59903138e-003, 1.17455784e-004, -3.38701345e-003,
          -1.62357942e-003, -2.52821366e-004, 2.15757405e-004,
          3.29210423e-004, 6.89281558e-004, 4.60749608e-004,
          4.65098507e-004, -4.53429675e-004, -1.60558254e-003,
          -1.38855260e-003, -2.80516164e-004, 7.31434382e-004,
          1.57756789e-003, 3.57359438e-003, 2.21706321e-003,
          1.40456867e-003, -1.73628679e-004, -1.38117548e-003,
          -1.30705489e-003, 3.58444522e-004, 6.17295678e-004,
          4.41138400e-004, 2.68901885e-003, 6.86299463e-004,
          3.32166412e-004, 2.17923356e-004, -1.17177702e-003,
          -5.38587883e-005, 8.50170327e-005, -3.21681000e-005,
          -7.14905269e-004, 2.23506428e-003, -7.39590381e-004,
          -6.75681731e-005, 3.33366712e-004, 6.79155564e-005,
          -1.55990268e-003, 2.16909699e-004, 3.88143293e-004,
          3.80492245e-004, 2.33586761e-003, 6.43700419e-004,
          1.00900803e-003, 2.94281461e-004, -1.47683395e-003,
          -7.51712592e-004, -1.05735788e-004, -4.62141208e-004,
          -1.87935517e-003, 1.65869109e-003, -8.43846239e-004,
          5.29601879e-004, 3.94135306e-004, -5.52734768e-004,
          -1.05598243e-004, -2.53211292e-005, 6.29632385e-004,
          -3.17213198e-005, 2.24032858e-003, 7.01289246e-005,
          1.28943042e-003, 7.93252722e-004, 5.13123341e-005,
          -3.75001866e-004, 6.40174665e-004, 5.97828883e-004,
          6.18907565e-004, 2.05445499e-003, 1.14156411e-003,
          1.70731510e-003, 1.29798439e-003, -2.76823383e-004,
          -1.12229097e-003, -7.37780472e-004, -6.50223985e-004,
          -1.41177094e-003, 1.15519587e-003, -4.47352912e-004,
          4.70138242e-004, 3.51972587e-004, -7.42215721e-004,
          -1.56293449e-003, -7.20326032e-004, -3.88233428e-004,
          -5.54172788e-004, 5.09269361e-004, 3.09561816e-004,
          3.93559400e-004, 5.41916641e-004, -1.20819220e-003,
          -1.91661587e-003, 7.37075403e-004, -2.00241811e-005,
          2.02555500e-004, 1.50067196e-003, 1.90747262e-004,
          7.20017473e-004, 1.46174792e-003, -1.93393172e-003,
          -2.15861923e-003, 1.39259815e-003, 6.08311384e-004,
          9.86140920e-004, 1.31689012e-003, -3.98933713e-004,
          3.88296787e-004, 7.80677248e-004, -2.20220420e-003,
          -3.91756505e-004, -9.59226163e-005, 3.15682883e-005,
          -6.08258997e-004, 7.44990481e-004, -8.27412150e-005,
          3.21522763e-004, 7.48640217e-004, -1.99510803e-004,
          -4.80762043e-004, 4.81297233e-004, 4.77928872e-004,
          8.68414238e-004, 1.16693741e-003, -3.31927440e-004,
          6.52025163e-004, 5.49278397e-004, -4.09591768e-004,
          -1.19529152e-003, 4.58659284e-004, 2.98462866e-004,
          2.87553761e-004, 8.32084916e-004, 1.96512803e-004,
          7.79686496e-004, 7.84908072e-004, -1.14878081e-003,
          -1.28173118e-003, -8.31856323e-006, 5.91885590e-004,
          -1.06912432e-003, 3.00439162e-004, 7.38321760e-005,
          1.35313242e-003, 1.14872225e-003, -1.23578438e-003,
          -3.34099052e-004, 1.77720241e-004, 1.07223619e-004,
          5.03070944e-004, 2.24459960e-004, 1.10862195e-003,
          1.23134884e-003, 5.81639470e-004, -1.75514098e-004,
          -2.13230797e-003, -4.68219980e-004, -2.21023758e-004,
          -2.08477577e-004, 1.17305492e-003, 1.16665079e-003,
          1.46293407e-003, 9.87995649e-004, -1.68160023e-003,
          -2.05723639e-003, -5.15530061e-004, 7.91324943e-004,
          -3.09619172e-005, 2.84784473e-003, 8.69888987e-004,
          1.57007470e-003, 1.17558544e-003, -1.65435148e-003,
          -2.13411567e-003, 4.27888910e-004, 1.28761644e-003,
          1.45822368e-003, 3.02857044e-003, 1.80554495e-003,
          9.85003659e-004, 8.58756015e-004, -1.72796845e-003,
          -3.74283735e-003, -8.04099080e-004, -1.58827781e-004,
          1.77786515e-005, 2.98818387e-003, 1.30359922e-003,
          1.10975397e-003, 4.70993487e-004, -2.94730486e-003,
          -4.56324406e-003, -3.65282322e-004, 4.42505087e-004,
          1.23322732e-003, 3.72186326e-003, 1.93349330e-003,
          9.06068482e-004, 3.98568256e-004, -4.18707030e-003,
          -2.23805057e-003, 8.47725372e-004, 1.61148480e-003,
          1.41991337e-003, 1.79134763e-003, 2.32648873e-003,
          1.68364181e-003, 4.03557497e-004, -1.83109369e-003,
          -2.43992801e-003, 7.84796197e-004, 1.67204172e-003,
          1.24756619e-003, 1.47763698e-003, 9.53275769e-004,
          1.54632493e-003, 8.10050580e-004, -2.14345660e-003,
          -1.97602110e-003, 5.23649032e-005, 5.49576012e-004,
          3.33407777e-004, 8.90342693e-004, 1.30106218e-003,
          1.43729115e-003, 5.08175581e-004, -1.77684496e-003,
          -1.09593943e-003, 1.44461213e-004, 4.69824678e-004,
          -4.59445699e-004, 5.24688105e-004, 9.09465540e-004,
          1.16075075e-003, 5.27871889e-004, -8.98704224e-004,
          -8.94479395e-004, 5.38404216e-004, 8.87466827e-004,
          5.82349370e-004, 2.30982923e-003, -2.45379400e-004,
          1.13090628e-003, 1.19483029e-003, -6.42391155e-004,
          -4.54854657e-004, 3.16601887e-004, 9.78955999e-004,
          -7.48035789e-004, 1.48200954e-003, -8.51284887e-004,
          1.06669380e-003, 8.10735219e-004, -4.21239733e-004,
          -1.15528004e-003, 2.71299621e-004, 6.41035673e-004,
          3.66329223e-005, 1.79522671e-003, 2.91447766e-004,
          4.91643499e-004, 1.95272049e-004, -1.12399273e-003,
          -1.44082122e-004, 1.80798379e-004, 7.54858949e-004,
          -5.86211099e-004, 2.54007144e-004, -5.31049795e-004,
          1.05075561e-003, 3.58130579e-004, -1.91466286e-004,
          -5.11332357e-004, 2.45968258e-004, 5.25031297e-004,
          -6.38584606e-004, 8.00686539e-004, -4.26327868e-004,
          1.61601754e-003, 1.06743630e-003, -1.73037100e-004,
          -1.65809397e-004, 1.04136835e-003, 1.21834618e-003,
          -7.17223564e-004, 6.52341638e-004, -1.82838179e-004,
          1.85630412e-003, 1.51182525e-003, -6.38437486e-005,
          6.47644978e-004, 1.56178852e-004, 8.13084131e-004,
          3.12735506e-006, -6.01535372e-004, 4.65671146e-005,
          1.44547806e-003, 8.28367309e-004, 1.09922583e-003,
          -5.00744849e-004, -2.22859642e-004, 5.82868524e-004,
          -4.42509219e-004, -6.97876734e-004, -3.16414043e-005,
          1.32028398e-003, 8.35615268e-004, -1.99516449e-004,
          4.86554083e-004, 8.58523490e-005, 4.78993141e-004,
          -1.56123063e-003, -1.88752019e-004, -2.56251398e-004,
          1.31050276e-003, 1.42539304e-003, 5.24988456e-004,
          1.92447798e-004, 8.50625511e-004, 8.44038324e-004,
          -1.68006087e-003, 4.63824217e-005, -6.21246640e-004,
          1.82955083e-003, 1.88182108e-003, 1.60360563e-004,
          -9.30255977e-004, -4.17406205e-004, -2.33493101e-005,
          -7.00308185e-004, 2.38209293e-004, 6.73637041e-005,
          5.88292838e-004, 6.27369620e-004, -4.40915523e-004,
          9.34429758e-004, 4.68511644e-006, 1.49843559e-004,
          -1.06406875e-003, -3.39667022e-004, 8.52140656e-005,
          9.14731296e-004, 1.02430815e-003, 1.75506936e-003,
          -2.43055707e-004, 8.45432922e-004, 8.27066950e-004,
          -1.20933901e-003, -2.59188353e-004, -8.08616576e-004,
          6.55623386e-004, 8.16334039e-004, -1.61876858e-004,
          -1.53169458e-004, 2.68312375e-004, 9.84902494e-004,
          -9.68693057e-005, -1.47765363e-003, 3.82581726e-004,
          5.77400904e-004, 1.11065200e-003, 1.41474506e-004,
          1.27592101e-003, 5.44629002e-005, -4.06824220e-005,
          -1.47784746e-003, -1.30366170e-004, -5.82645065e-004,
          1.84635908e-004, 7.40694522e-004, 1.83368486e-003,
          1.37530582e-003, -1.36980118e-004, 1.87880680e-004,
          -7.91042228e-004, -1.27661566e-003, 3.25737812e-004,
          3.45692737e-004, 6.09760522e-004, 2.06250697e-003,
          5.29714962e-005, -1.05094798e-004, 1.84540419e-004,
          -5.74589067e-004, -8.83925124e-004, 3.10169678e-004,
          9.78396740e-004, 1.05015852e-003, -4.60457813e-004,
          -5.42587135e-004, -9.94048460e-005, 3.98328004e-004,
          -5.19796275e-004, 4.25422622e-004, 8.42207519e-004,
          1.35836471e-003, 8.85933347e-004, -1.01273425e-003,
          1.35357305e-003, -1.91379251e-004, 3.55394805e-005,
          -1.96855515e-004, -9.58740944e-004, 6.54165488e-005,
          3.68975918e-004, 1.41277807e-004, 1.59918412e-003,
          2.89511954e-004, -5.98766201e-004, 5.45540417e-004,
          7.91739265e-004, -4.30803135e-004, 9.08524264e-004,
          1.07007800e-003, -5.43045790e-005, 3.39234131e-004,
          -2.09815288e-003, 8.25790848e-005, 2.79733475e-004,
          -1.74966954e-005, 1.58039248e-003, 9.00538813e-004,
          1.01199490e-003, 3.03575391e-004, -2.52230442e-003,
          -1.79185509e-003, 8.03667645e-004, 1.11797242e-003,
          1.68001265e-004, 1.71780807e-003, 6.95009250e-004,
          1.47400459e-003, 1.43113066e-004, -2.25520902e-003,
          -1.42032246e-003, -1.37635870e-004, 6.51479524e-004,
          1.17407343e-003, 6.73029630e-004, 9.48964967e-004,
          9.15391021e-004, 5.49542427e-004, -1.08204957e-003,
          -1.06122741e-003, 6.47212903e-004, 1.31485809e-003,
          1.61469262e-003, 9.05540539e-004, 7.64403667e-004,
          1.54590292e-003, 9.26676381e-004, -8.65879876e-004,
          -1.52411475e-003, 6.03611523e-004, 9.16651043e-004,
          5.38634136e-004, 2.75274483e-003, 7.63809658e-004,
          9.52165283e-004, 5.21323644e-004, -1.73837086e-003,
          -2.02344311e-003, 2.57132924e-004, 5.06424054e-004,
          7.07866915e-004, 6.21978834e-004, 1.39015657e-003,
          8.82768596e-004, 2.34883730e-004, -1.81924540e-003,
          -1.01028290e-003, 2.87259580e-004, 5.11161692e-004,
          1.02416519e-003, 1.93179073e-003, 1.40789850e-003,
          1.15090120e-003, 3.29423987e-004, -8.65447451e-004,
          -1.89554261e-003, 2.10904764e-004, 6.06671034e-004,
          8.75127676e-004, 8.12823419e-004, 8.57083825e-004,
          7.66621146e-004, -3.80835154e-005, -1.95683376e-003,
          -1.99072552e-003, -1.72979402e-004, 4.26871935e-004,
          6.91878668e-004, 1.12550263e-003, 1.57910748e-003,
          8.02355644e-004, 4.21072240e-004, -2.05046474e-003,
          -2.01911177e-003, 1.85816869e-004, 9.26658569e-004,
          4.14086942e-004, 1.18358864e-003, 1.23571989e-003,
          1.05166738e-003, 9.71033180e-004, -1.67018094e-003,
          -1.69941410e-003, 5.61726745e-004, 1.61596446e-003,
          1.15424721e-003, 1.41895947e-003, 2.05980090e-004,
          6.76124837e-005, -1.17430936e-004, -1.59693498e-003,
          -1.63190824e-003, 4.78582020e-004, 7.77118606e-004,
          3.96772608e-004, 2.91160162e-004, 9.11115843e-004,
          6.83176972e-004, 3.15823068e-004, -1.63851760e-003,
          -1.54923834e-003, 3.12063261e-004, 9.89897177e-004,
          -3.51747804e-005, 4.29305801e-004, 1.82289295e-004,
          1.08540035e-003, 6.39846374e-004, -1.63051055e-003,
          -1.44140469e-003, 5.32464182e-004, 1.72387692e-003,
          6.24773675e-004, 1.60307309e-003, -2.02072755e-004,
          1.03742734e-003, 8.52617668e-004, -1.50891941e-003,
          -1.28335261e-003, 8.92672746e-004, 6.84210856e-004,
          9.02353961e-004, -1.11950387e-004, 2.23715935e-004,
          6.39239035e-004, 3.05327732e-004, -1.53876015e-003,
          -1.66613376e-003, 7.41894473e-004, 1.20718370e-003,
          1.10357557e-003, 6.16620004e-004, 6.17000507e-004,
          9.91948997e-004, 6.62373088e-004, -1.69085723e-003,
          -1.28091022e-003, 3.44123226e-004, 6.50107337e-004,
          -3.12450808e-004, 1.15180213e-003, -1.17994135e-003,
          2.46001757e-004, 4.29770036e-004, -1.36298873e-003,
          -9.52636765e-004, 7.85675773e-004, 5.38675522e-004,
          2.16078435e-004, 1.48378615e-003, -9.30024951e-004,
          8.62129149e-004, 1.10261526e-003, -8.41601402e-004,
          -5.45777846e-004, 4.09658416e-004, 7.07068830e-004,
          5.44866722e-004, 6.23933214e-004, 1.06426800e-004,
          7.18391617e-004, 1.11613586e-003, -6.10449351e-004,
          -5.02606854e-004, 9.39995167e-004, 1.22444355e-003,
          8.13487160e-004, 1.62572670e-003, -5.26606047e-004,
          1.27860776e-003, 1.69115537e-003, -5.64508431e-004,
          -6.12040923e-004, -1.62996410e-004, 5.18774614e-004,
          7.00116565e-004, 1.45464996e-003, 5.30339777e-004,
          6.04632776e-004, 1.62691940e-004, -4.58628405e-004,
          -3.80032667e-004, -3.09803319e-004, 4.72552289e-004,
          6.43267354e-004, -5.00810682e-004, 7.97897635e-004,
          3.38494574e-004, -4.40715405e-004, -7.74168991e-004,
          2.66946212e-004, 3.12085758e-004, 5.88946801e-004,
          4.38998919e-004, 7.09159940e-004, 2.37333355e-004,
          1.08466856e-003, 5.73756348e-004, 2.36054912e-004,
          -3.78960431e-005, 1.81782147e-004, 3.86223779e-004,
          1.40762667e-003, -4.94975364e-004, -4.67980244e-005,
          7.41894648e-004, 3.54397598e-005, -4.23949852e-004,
          3.58470716e-005, -2.82186102e-005, -5.48940352e-006,
          4.15940478e-004, -3.45323584e-004, 4.96862456e-004,
          1.77205555e-004, 7.72734929e-005, 8.01688020e-006,
          -3.70234520e-005, -1.43037716e-004, -3.59466139e-005,
          2.13531617e-004, -3.19622515e-004, 1.49591695e-004,
          6.49493450e-005, 2.90405369e-005, -2.95255159e-005,
          3.10895157e-005, 7.68045793e-005, 1.09108791e-004,
          9.62508202e-004, -3.07295326e-004, 4.34355374e-004,
          2.46317475e-004, 1.26695828e-004, -2.20552447e-005,
          -5.87658797e-005, -4.89743106e-005, 2.80752247e-005,
          3.03320150e-004, -3.01189517e-004, 5.36376028e-004,
          2.91023433e-004, 8.39190907e-005, -1.58215189e-005,
          -1.54627167e-004, -9.87651947e-005, 6.69001238e-005,
          2.36193780e-004, 2.49724635e-005, 1.08893553e-004,
          -4.16088078e-005, -6.92454296e-006, -9.79428733e-005,
          -1.15940515e-004, 3.39340695e-005, 2.58304444e-005,
          8.39188986e-004, -1.74552697e-004, 7.50809675e-004,
          9.63394850e-005, -8.43994349e-006, -1.04032013e-004,
          -1.45119790e-004, 4.88112346e-005, 2.72369565e-004,
          4.21466655e-004, -1.87700949e-004, 2.48736964e-004,
          2.82602687e-005, -6.45397886e-005, -2.12885516e-005,
          -5.44617287e-005, 5.41850568e-005, 2.95327976e-004,
          8.60210741e-004, -1.63325123e-004, 5.84701251e-004,
          1.11832735e-004, -5.58636975e-006, -1.46610928e-005,
          -2.89726886e-004, -6.81148085e-005, -2.19137437e-004,
          6.80360303e-004, 4.83835378e-004, 6.10135554e-004,
          2.67422911e-006, -5.17475019e-005, -2.42057926e-004,
          -6.05278256e-005, -5.93384611e-005, -9.69853281e-005,
          4.00652352e-005, -1.85730855e-003, -6.32519368e-005,
          -2.47619155e-005, -1.75339683e-005, -1.04963103e-004,
          -1.50103690e-004, -1.64137979e-004, 1.79602682e-006,
          4.66517318e-004, 5.00746595e-004, 3.11226904e-004,
          2.49111181e-004, -5.78038198e-005, -8.14041923e-005,
          -1.08829272e-005, -1.39257812e-004, -4.50923035e-005,
          -4.04219245e-005, -1.61434803e-003, 9.48489378e-006,
          8.99098668e-005, -3.91751855e-005, 2.81785888e-005,
          1.57959352e-003, 8.37143452e-004, 4.58511349e-004,
          4.81001858e-004, -3.49605107e-003, 8.40746157e-004,
          8.16020300e-004, 8.35573592e-004, 1.50001643e-003,
          1.98566355e-003, 1.02254574e-003, 7.56292080e-004,
          3.16463149e-004, -7.06979190e-004, 2.19511785e-004,
          1.21459470e-003, 1.04392401e-003, 1.97630422e-003,
          -8.84582405e-004, 4.95624008e-005, 1.01433339e-004,
          1.04050123e-004, -5.55554964e-003, 4.66645783e-004,
          3.69306363e-004, 2.51533638e-004, -7.94771302e-004,
          -1.67227670e-004, 2.32705424e-004, 2.83019122e-004,
          6.77207019e-004, -1.42465439e-003, 6.93714363e-004,
          1.37269567e-003, 7.23740493e-004, -1.01785708e-005,
          7.37297756e-004, 8.91438802e-004, 1.13657652e-003,
          7.70643295e-004, -2.47417297e-003, -6.47154739e-005,
          9.31395858e-004, 5.89163217e-004, 9.99468961e-004,
          8.93624790e-004, 8.73105251e-004, 1.78287178e-003,
          1.07521354e-003, -1.18282309e-003, 6.60007645e-004,
          1.61784154e-003, 1.27662846e-003, 1.03751256e-003,
          8.83604982e-004, 4.94358363e-004, 8.80871317e-004,
          1.38345337e-003, -1.81005569e-003, 5.62179601e-004,
          8.59827735e-004, 5.33658895e-004, 7.71066174e-004,
          1.41188048e-003, 5.06738550e-004, 1.28409115e-003,
          1.01411412e-003, -7.04803271e-004, 1.09970290e-003,
          1.01208303e-003, 6.88770029e-004, 1.55526551e-003,
          1.29830628e-003, 4.15060174e-004, 1.02020090e-003,
          6.79098011e-004, -2.26349011e-003, 1.17707776e-003,
          1.97519525e-003, 1.51816756e-003, 1.55540137e-003,
          4.62116848e-004, -2.68665783e-004, 8.62913381e-004,
          7.31828040e-004, -1.05571141e-003, 1.43712584e-003,
          1.82685431e-003, 1.69901841e-003, 1.28040800e-003,
          5.29198442e-004, 2.24497300e-004, 5.77236409e-004,
          2.25507523e-004, -4.05580970e-003, 1.12387806e-003,
          1.08909793e-003, 6.34635508e-004, 5.61129302e-004,
          -2.80059641e-004, -2.54746265e-004, 3.02002794e-004,
          1.36476185e-004, -2.71936925e-003, 6.82883081e-004,
          7.01777171e-004, 7.13488844e-004, 7.14878624e-005,
          -3.23326123e-004, -9.14237462e-004, 7.89625119e-005,
          8.86309892e-004, -3.13379278e-004, 9.29683098e-004,
          9.88369342e-004, 1.27858063e-003, 4.18282521e-004,
          -1.18664815e-003, -3.05816182e-004, 2.87043251e-004,
          7.04491686e-004, -4.85027535e-003, 7.10038876e-004,
          3.04538058e-004, 6.75810792e-004, -8.65770853e-004,
          3.28703114e-004, -8.67895549e-004, 2.28074045e-004,
          7.97644316e-004, 5.10908314e-004, 9.95678245e-004,
          6.23890606e-004, 5.24604402e-004, 6.17437006e-004,
          1.26501627e-003, -1.05617182e-004, 5.92386175e-004,
          1.20416039e-003, -4.95181128e-004, 1.32451125e-003,
          9.50946065e-004, 6.65763044e-004, 1.34781143e-003,
          -1.00471219e-003, 6.75598159e-004, 1.42678269e-003,
          8.80885520e-004, -7.20787619e-004, 9.20576509e-004,
          6.44023705e-004, 6.91941706e-004, -1.11762341e-003,
          -5.46575699e-004, 5.26913442e-004, 1.10276358e-003,
          1.63235143e-003, -2.86638993e-003, 1.00895052e-003,
          6.40384271e-004, 6.30502997e-004, -4.10623587e-004,
          1.17422186e-003, 4.08227294e-004, 8.61742708e-004,
          1.47203647e-003, 1.60305551e-003, 1.30796491e-003,
          7.85447133e-004, 6.70578622e-004, 1.16369070e-003,
          4.53443354e-004, 2.08157289e-004, 6.84221508e-004,
          1.49640301e-003, -1.74695451e-003, 1.14703807e-003,
          8.13506951e-004, 1.88715014e-004, 4.21413424e-004,
          2.49486766e-003, 3.05399764e-004, 1.08935800e-003,
          1.05242268e-003, -2.96216737e-003, 9.66907653e-004,
          2.90720694e-004, 1.27736566e-004, 2.69032130e-003,
          2.59127491e-003, 3.76990589e-004, 2.17018859e-003,
          1.02486880e-003, -1.50868169e-003, 5.48003358e-004,
          1.18470297e-003, 4.84478573e-004, 2.57197837e-003,
          7.34555011e-004, 1.03801416e-004, 4.62925265e-004,
          9.41858045e-004, -3.48662701e-003, 7.60739669e-004,
          1.38728486e-004, -3.12960532e-004, 1.02238043e-003,
          2.83048081e-004, 5.92239201e-004, 7.12853856e-004,
          2.90839322e-004, -3.51116457e-003, 5.20774222e-004,
          1.05821365e-003, 2.61141016e-004, 3.14840116e-004,
          1.45397510e-003, 6.58666249e-004, 1.39821181e-003,
          6.33972406e-004, -1.05285330e-003, 3.38596612e-004,
          1.30556640e-003, 4.19096730e-004, 1.21407199e-003,
          -5.84216206e-004, 5.84790076e-004, 1.46872061e-003,
          1.01345417e-003, 1.53002125e-004, 4.25586710e-004,
          8.59134074e-004, 2.52147380e-004, -4.00178076e-004,
          -4.07467996e-006, 6.03139517e-004, 9.23268730e-004,
          5.73894242e-004, -1.83878408e-003, 1.13808271e-003,
          1.57723832e-003, 7.18563155e-004, -7.58485112e-005,
          -1.06385199e-003, 2.48806842e-004, 8.32270773e-004,
          9.25383996e-004, 7.95988526e-005, 9.29284317e-004,
          1.07485964e-003, 6.70067966e-004, -8.58140120e-004,
          -4.08235675e-004, 3.06930073e-004, 1.10605452e-003,
          5.71431767e-004, -4.36842529e-004, 1.12893258e-003,
          1.20956288e-003, 7.00798235e-004, -2.62446527e-004,
          3.99637007e-004, 1.87110254e-005, 5.60056011e-004,
          -5.44882729e-004, -4.07391042e-003, 1.29959197e-004,
          1.26131193e-003, 4.41969605e-004, 7.64039462e-004,
          3.07718234e-004, 4.56264621e-004, 9.01964726e-004,
          7.87959027e-004, -8.61375476e-004, 2.63734401e-004,
          8.80739070e-004, 8.60543689e-004, 5.79024374e-004,
          9.21408238e-004, 6.42037077e-004, 5.65366528e-004,
          -9.98110627e-004, -3.58976610e-003, -1.92213847e-004,
          1.17706344e-003, 6.68127905e-004, 1.04766223e-003,
          2.63110036e-004, 3.33299307e-004, 4.02191217e-004,
          -9.21362778e-004, -3.60390078e-003, -4.08501655e-004,
          1.26037688e-003, 3.67895118e-004, 4.77347145e-004,
          6.05425099e-004, 3.21148109e-005, -1.96460271e-004,
          -5.83739544e-004, -2.75959447e-003, 8.72491335e-004,
          1.73349853e-003, -5.54582948e-005, 5.26727701e-004,
          1.17437902e-003, 6.23953820e-004, 5.85112313e-004,
          -6.69611967e-004, -2.86405138e-003, 6.55706506e-004,
          1.42766570e-003, 4.65110556e-004, 1.20906299e-003,
          5.47123142e-004, 2.38491426e-004, 5.53993916e-004,
          4.23894562e-005, -3.44672124e-003, 1.37699500e-003,
          2.05842499e-003, 5.97467588e-004, 6.47956331e-004,
          1.14402361e-003, 3.87757289e-004, 1.00086001e-003,
          8.72503151e-005, -1.92790700e-003, 1.19395100e-003,
          1.40709768e-003, 5.32477745e-004, 9.52686532e-004,
          2.08731345e-003, 6.28173118e-004, 1.45528768e-003,
          4.29542386e-004, -2.31612916e-003, -4.20054828e-004,
          5.68997231e-004, 5.67374169e-004, 2.19862047e-003,
          -6.00610510e-004, -4.79825867e-005, 5.57127816e-004,
          -2.60641536e-004, -2.16265768e-003, 7.69072969e-004,
          1.99468806e-003, 1.25203375e-003, -4.90468374e-005,
          8.71409487e-004, 9.71945337e-005, 3.59478290e-004,
          9.73809976e-004, -2.65885727e-003, -3.04968300e-004,
          1.05028006e-003, 8.49267177e-004, 1.07831194e-003,
          6.48617046e-004, -2.04004740e-004, 3.77382908e-004,
          6.54050556e-004, -1.57161587e-004, -8.47678864e-004,
          5.60666667e-004, -8.96708880e-005, 3.91262962e-004,
          -2.99447391e-004, -6.73091854e-004, 1.72192827e-004,
          7.38432049e-004, -4.59532712e-005, -1.25297031e-003,
          3.43450054e-004, 1.39720914e-005, -1.15532261e-004,
          4.27495426e-004, -5.50261291e-004, 1.08534732e-004,
          1.33318745e-003, 2.87220551e-004, -2.44346942e-004,
          -1.80652147e-004, -4.16070397e-004, 1.48629377e-004,
          -7.93885149e-004, -1.05868978e-003, 2.00295370e-004,
          7.46688165e-004, -3.01948312e-004, -5.98927436e-005,
          3.43297470e-005, -3.27252870e-004, -6.02384622e-004,
          2.85066984e-004, 1.79464798e-004, 5.63238282e-004,
          1.03132319e-004, -7.24270823e-004, -6.16926234e-004,
          -1.15852767e-004, 2.30609265e-004, 1.33925132e-004,
          6.92237401e-004, 7.10258842e-004, 1.09465129e-003,
          1.10893881e-004, -2.62322894e-004, -6.05173293e-004,
          -8.64014553e-004, -2.25921714e-004, 3.97386641e-004,
          -3.27533256e-004, 1.18845936e-004, 1.12738367e-003,
          4.36664122e-004, -6.43059320e-004, -4.24250757e-004,
          9.35433272e-005, -2.75852915e-004, -3.29242379e-004,
          -1.16447394e-003, -2.96494080e-004, 4.53062414e-004,
          2.65958661e-004, -4.03603015e-004, -1.76859525e-004,
          -5.73391677e-004, -1.19954860e-003, -1.36185403e-003,
          -4.45079408e-004, 2.56900366e-005, -1.50676307e-004,
          1.69012666e-004, 1.57960062e-003, 6.94047640e-006,
          -8.05720221e-004, -3.90656467e-004, -6.87211053e-004,
          -1.40581187e-003, 2.22895673e-004, -4.03032172e-004,
          -7.70059705e-004, 1.85295625e-003, -9.16420104e-005,
          2.12252868e-004, -3.97538571e-008, -1.84156012e-003,
          -2.40975106e-003, -8.72736971e-004, -2.30667560e-004,
          -1.00419587e-004, 1.47318724e-003, 6.73544244e-004,
          -4.51531407e-004, -8.16307846e-004, -2.37910030e-003,
          -2.35308614e-003, -4.27464052e-004, -1.41648721e-004,
          -1.13833917e-003, 9.74217313e-004, 2.01932271e-004,
          1.32752830e-004, -6.54899668e-006, -2.54603894e-003,
          -8.95339646e-004, -6.10081734e-005, 2.42516064e-004,
          1.30377055e-004, 1.41467364e-003, 1.13012000e-004,
          1.10328139e-003, 6.48673158e-004, -8.03885050e-004,
          -7.83529540e-004, 1.66341284e-004, 4.78296162e-004,
          -5.64738111e-005, -1.89948958e-004, 1.05710118e-003,
          1.06814643e-003, 3.53880401e-004, -6.01601321e-004,
          -1.55006221e-003, -5.04750526e-004, -5.70888988e-005,
          -4.29184409e-004, 3.08148738e-004, 4.81792755e-004,
          3.90572124e-004, 1.09661203e-004, -1.24951010e-003,
          -1.37850083e-003, -9.33847623e-005, 1.38621326e-004,
          4.33907233e-004, -5.50366996e-004, 9.65936109e-004,
          4.92919236e-004, -2.06334080e-005, -1.09390402e-003,
          -3.89424706e-004, -9.45734573e-005, 2.30546633e-004,
          3.24273773e-004, -2.16394168e-004, 4.44724865e-004,
          4.15380113e-004, -3.91269539e-004, -1.74054585e-004,
          3.76798096e-004, -6.65199623e-005, 9.50893911e-004,
          1.33958249e-003, 3.28140566e-003, 1.45165273e-003,
          1.40065711e-003, 1.90639752e-004, 7.33348134e-004,
          -2.89164111e-003, -6.26226596e-004, -3.08332004e-004,
          3.54712742e-004, -4.85225843e-004, 2.12142142e-004,
          -1.36680173e-004, -3.23426008e-004, -2.69946293e-003,
          -3.32559063e-003, -1.63734308e-003, -7.94218038e-004,
          5.34861058e-004, 2.67834216e-003, 8.81426968e-004,
          1.33822003e-004, -3.62123770e-004, -2.69428454e-003,
          -7.94098480e-004, -2.42301161e-004, 3.66089633e-004,
          -2.48376047e-004, 2.54063960e-003, 1.24958984e-003,
          1.40979688e-003, 5.69229247e-004, -1.55845773e-004,
          3.59273603e-004, -3.74829942e-005, 5.21466463e-005,
          -1.79514976e-003, 1.81976100e-003, -6.12532240e-005,
          1.21922686e-003, 8.29261378e-004, 9.19117650e-004,
          -3.17571964e-003, -1.41471694e-003, -5.75614511e-004,
          -4.59296396e-004, 1.53387163e-003, 3.49283480e-004,
          -1.93217900e-004, -5.35338128e-004, -2.41668755e-003,
          -3.05220112e-003, -1.37466693e-003, -1.25457288e-003,
          -1.34383014e-003, 1.56880892e-003, -1.55498378e-003,
          -4.92427964e-004, -4.55885194e-004, -2.51085544e-003,
          4.24223952e-004, -2.98023311e-004, -6.71568676e-004,
          -1.95185759e-003, 2.35632691e-003, -3.34830227e-004,
          3.88486369e-004, 4.52076783e-004, 8.00492475e-004,
          -1.91597734e-004, 2.53628368e-005, 1.33696973e-004,
          -7.71685154e-004, 2.21471721e-003, 1.27200299e-004,
          4.79926472e-004, 7.43559853e-004, -2.55088726e-005,
          -3.28682666e-003, -1.31737208e-003, -1.41890894e-003,
          -1.40409183e-003, 2.09320942e-003, -1.00016023e-003,
          -2.29009165e-004, -4.44425852e-004, -3.34432069e-003,
          -3.22076562e-003, -8.41041445e-004, -3.53092153e-004,
          3.05431349e-005, 1.91393378e-003, 6.94889866e-004,
          -1.78725386e-004, -3.04400819e-005, -3.16646858e-003,
          1.14905485e-003, 6.22089778e-004, -1.37118903e-007,
          -6.06767833e-004, 4.44422010e-004, -3.00383661e-004,
          3.53790412e-004, 6.96746691e-004, 1.41347956e-003,
          8.92609183e-004, 3.08025919e-004, 3.15463985e-004,
          8.23296490e-004, -6.26725843e-004, -3.32652620e-004,
          7.78986199e-004, 2.35323576e-004, 1.15429191e-003,
          -1.26128085e-003, 3.98036384e-004, 1.19781842e-004,
          1.50384600e-004, 1.60865369e-004, 5.16355387e-004,
          -5.58652042e-004, 1.11270834e-004, -1.19266438e-003,
          -1.42606907e-003, -8.07018441e-005, -1.86044650e-004,
          1.02963764e-003, -1.20315084e-003, -3.22301959e-004,
          6.13586089e-005, -6.35641103e-004, -1.46949477e-003,
          -9.85114166e-005, 2.72396021e-004, 3.39994323e-004,
          3.58965277e-004, 1.35072379e-003, 8.17190798e-004,
          9.29084781e-004, 1.83350683e-004, -1.34808768e-004,
          -2.14414578e-003, -5.19918045e-004, -3.46493936e-004,
          -1.00642606e-003, 1.69814052e-003, 8.62109708e-004,
          1.10700738e-003, 2.82358087e-004, -1.79760566e-003,
          -2.19707470e-003, -4.31641711e-005, 3.59695026e-004,
          8.46830662e-004, 1.11454993e-003, 1.08999352e-003,
          4.20104974e-004, -3.75504227e-004, -2.39556353e-003,
          -2.27618660e-003, -3.29679227e-004, -7.70457671e-004,
          -5.89787320e-004, 3.75821372e-004, 9.05296009e-004,
          2.83125672e-004, -8.72546007e-005, -2.64033908e-003,
          -3.58141726e-003, -8.34595761e-004, -3.96238465e-004,
          -1.83600001e-004, 2.81904684e-003, 1.22313271e-003,
          1.23213104e-003, 5.36367115e-005, -2.74228607e-003,
          -4.15660162e-003, -5.33090672e-004, 1.45508224e-004,
          1.33208209e-003, 3.06279305e-003, 2.42329598e-003,
          1.29718520e-003, 3.41549341e-004, -3.41950008e-003,
          -3.04932124e-003, -3.40456900e-004, 6.38574129e-005,
          -1.62613680e-004, 1.93778716e-003, 2.85883783e-004,
          1.04167426e-004, -4.96766297e-004, -2.89426022e-003,
          -2.81006261e-003, 1.54334411e-005, 1.91248197e-004,
          1.22031197e-003, 1.14716461e-003, 2.01630918e-003,
          9.06404457e-004, -1.71904521e-005, -2.59954226e-003,
          -1.64004380e-003, -4.47203842e-004, 6.03807757e-006,
          7.58936629e-004, 1.99578959e-003, 6.19030325e-004,
          1.29341555e-003, 5.19119902e-004, -1.50690100e-003,
          -1.19968143e-004, 4.29587468e-004, 9.01215128e-004,
          -7.16554117e-004, 4.48080566e-004, 2.84039037e-004,
          1.56628387e-003, 8.67918599e-004, 5.36004482e-005,
          -1.95047248e-003, 3.71643080e-004, 6.51024980e-004,
          7.43996701e-004, 3.69095011e-004, 1.46083359e-003,
          1.08170346e-003, 3.57833691e-004, -1.93037954e-003,
          -1.29502884e-003, 6.25972112e-004, 1.01749296e-003,
          5.72445686e-004, -2.60967819e-004, 7.07763247e-004,
          7.72801053e-004, 4.25547216e-004, -1.45533832e-003,
          2.60250352e-004, 7.16701965e-004, 6.07845141e-004,
          -8.67578783e-004, 1.26064068e-003, 8.59222608e-004,
          1.20092009e-003, 4.48935665e-004, 1.40617965e-004,
          8.56380095e-004, 2.18377143e-004, -7.10486260e-004,
          -1.49095128e-003, -1.32031110e-003, 5.80818043e-004,
          1.44226779e-003, 8.19686858e-004, 7.41301163e-004,
          -2.63933936e-004, 2.24683958e-004, 9.95865339e-005,
          4.80638933e-004, -1.25750306e-003, 1.43501291e-003,
          1.02211023e-003, 8.15118896e-004, -4.48719802e-004,
          -3.43414315e-004, -2.28331759e-004, -3.86219181e-004,
          -6.17499696e-004, -2.61347718e-003, 1.00902433e-003,
          1.26815401e-003, 7.91286700e-004, -4.51592641e-004,
          9.99100273e-004, 2.07813035e-004, 3.43979744e-004,
          -8.96812649e-004, -1.52720523e-003, 2.72802572e-004,
          1.47113611e-003, 1.19954383e-003, 1.46354933e-003,
          5.51702338e-004, -1.69706138e-004, 7.09124841e-004,
          -6.84810453e-004, -9.43333260e-004, 3.64812586e-004,
          1.51895464e-003, 1.12164975e-003, 9.54751915e-004,
          -7.90542166e-004, -2.70986900e-004, 4.81914438e-004,
          -7.91824656e-004, -1.52438693e-003, 1.02191849e-003,
          1.62965572e-003, 5.95841149e-004, -8.91496835e-004,
          -1.48542819e-003, -1.06924423e-003, -5.91858581e-004,
          -1.76802359e-003, -1.69859605e-003, 6.74473820e-004,
          1.95420813e-003, 7.25968042e-004, -1.07455300e-003,
          4.47470811e-004, -4.35888614e-006, 5.03711111e-004,
          -1.98047172e-004, 8.69030191e-005, 2.96554150e-004,
          1.17542269e-003, 9.04539716e-004, 6.33429852e-004,
          3.33627290e-003, 2.58482993e-004, 2.76319450e-004,
          -2.57736174e-005, -8.80913285e-004, -7.84366202e-005,
          9.94560542e-004, 1.05657987e-003, 3.64887482e-003,
          -1.00231927e-003, -7.19058735e-004, -1.54562003e-004,
          -5.14341169e-004, -9.79664153e-004, 7.60636816e-004,
          1.27433485e-003, 5.08393045e-004, -7.48472521e-004,
          -1.08514687e-004, -8.13515682e-004, -2.23620154e-004,
          -3.56168515e-004, -3.02939117e-003, 5.18047382e-005,
          6.13660028e-004, 1.91811036e-004, 2.02389914e-004,
          3.48757766e-003, 2.35489613e-004, -3.69171285e-005,
          -3.95320094e-004, -2.72504985e-003, -1.01155667e-004,
          6.06745074e-004, 1.26764516e-003, 3.93799506e-003,
          2.14148359e-003, 1.77000020e-005, 2.80616277e-005,
          -6.36076846e-004, -1.45653309e-003, 4.52556880e-004,
          4.16632276e-004, 9.99778626e-004, 2.82145245e-003,
          8.77492479e-004, -2.39441870e-004, -8.96881451e-004,
          -7.89643324e-004, -3.96896154e-003, -4.66332887e-004,
          7.70120474e-004, 3.64309875e-004, 9.88273881e-004,
          6.52538438e-004, -5.62711910e-004, -5.94704470e-004,
          -8.71026423e-004, -1.90729601e-003, -2.82967696e-004,
          7.41938362e-004, 3.68052803e-004, 7.44356657e-004,
          2.27461010e-003, -2.20329850e-004, -2.04231110e-004,
          -1.23380346e-003, -1.86322024e-004, 2.24322357e-004,
          7.64766359e-004, 5.94383047e-004, 2.85288063e-003,
          9.96899442e-004, -8.70771706e-004, 3.41049425e-004,
          8.34180450e-004, -1.23879965e-003, 1.19994453e-003,
          1.21403090e-003, 5.66498842e-004, 1.35328749e-003,
          -1.02816336e-003, -1.20267295e-003, -7.07172556e-004,
          -1.19019079e-003, -1.84860616e-003, -3.81799095e-004,
          4.85496857e-004, -6.09189919e-005, -6.34194643e-004,
          -1.74038170e-003, -1.18506234e-003, -4.91483603e-004,
          2.88924319e-004, -2.09465693e-003, 9.61308717e-004,
          -3.23864573e-004, -2.29014855e-004, -1.31797488e-003,
          1.58701616e-004, -2.10417435e-004, 6.08987466e-004,
          8.21514928e-004, -4.20045428e-004, 8.24214600e-004,
          7.45806552e-004, 1.00174849e-003, 8.43873830e-004,
          9.51888796e-004, 8.86804017e-004, 1.46468927e-003,
          1.74835254e-003, 1.90931663e-004, 8.26239193e-005,
          8.35375628e-004, 1.11873110e-003, 1.19304808e-003,
          -1.99398841e-003, -7.59122544e-004, -7.09252083e-004,
          2.36994878e-004, -1.25218940e-003, 2.39573739e-004,
          4.96091961e-005, 2.92170793e-004, -1.37868454e-003,
          -1.31358451e-003, -8.87449132e-005, -7.90692793e-005,
          3.81177611e-004, 1.92995212e-004, -3.31340707e-004,
          -4.55485890e-004, -2.60218541e-004, -1.17509754e-003,
          -1.83734301e-004, 1.88087106e-005, 7.19904783e-004,
          1.12622918e-003, 1.38719182e-003, 1.07087987e-003,
          3.08106974e-004, 2.23223004e-004, -5.76506682e-005,
          -5.76799677e-004, 4.14625218e-004, 1.24022097e-003,
          1.60465995e-003, 1.20551104e-003, 7.59815739e-004,
          1.01537407e-004, -6.65412081e-005, -7.59636983e-004,
          -2.16013473e-003, -8.93677759e-004, -2.86618422e-004,
          5.97109436e-004, 1.80221527e-004, 1.67828723e-004,
          -1.16803648e-003, -8.55094753e-004, -1.84197456e-003,
          -2.33228179e-003, -6.88762462e-004, 6.63810933e-005,
          6.26660243e-004, 1.39856455e-003, 4.24454163e-004,
          -5.43409027e-004, -7.07804458e-004, -2.06430652e-003,
          -8.06543627e-004, 9.69785033e-004, 1.59855711e-003,
          1.04749086e-003, 1.41777494e-003, -6.78598226e-005,
          1.74609362e-004, -1.81773983e-004, -9.94640635e-004,
          -1.01011293e-003, 9.16196150e-004, 1.19021244e-003,
          8.72147444e-004, -1.33293914e-004, 3.02122353e-004,
          1.20890909e-003, 7.99342452e-005, -1.22648175e-003,
          -1.71923928e-003, 2.62323156e-004, 6.89756242e-004,
          3.87260050e-004, -6.45332620e-005, -5.57241845e-004,
          -1.68511702e-004, -2.83868518e-004, -1.79194123e-003,
          -7.03800935e-004, 9.43746418e-004, 8.42798152e-004,
          1.77292305e-003, -1.67649775e-003, -1.66236059e-004,
          7.71769381e-004, -5.16507680e-006, -9.27993737e-004,
          -1.74191737e-004, 1.35206478e-003, 6.52184128e-004,
          6.84368308e-004, -2.32389523e-003, 1.42378249e-005,
          8.10825673e-004, 4.20131953e-004, -5.50121185e-004,
          -4.93007756e-005, 1.01762440e-003, 1.04445394e-003,
          1.21440354e-003, -1.56016322e-004, 1.09650579e-003,
          1.25375669e-003, 1.13632763e-003, -5.38673667e-005,
          -1.68984837e-003, 7.04057165e-004, 8.82225810e-004,
          1.26430672e-003, -2.88614701e-003, -3.12030315e-004,
          1.94983717e-004, -9.67587985e-005, -1.69134582e-003,
          -9.26355191e-004, 6.92260161e-004, 1.34166528e-003,
          2.32189405e-003, -7.69469771e-004, 1.62948956e-004,
          -1.41392287e-004, 2.14541797e-005, -9.99438693e-004,
          4.14145819e-004, 5.95526770e-004, 9.58572491e-004,
          1.00593991e-003, -1.10233028e-003, 7.39465060e-004,
          1.06925995e-003, 1.93541439e-003, 7.04171020e-004,
          1.23321544e-003, 1.31447660e-003, 1.37490931e-003,
          1.01684674e-003, 4.00279561e-004, 3.63822648e-004,
          1.82835991e-003, 2.83531053e-003, 1.24214613e-003,
          4.63668810e-004, 2.67575349e-004, 6.11780619e-004,
          1.88388804e-003, -2.89389933e-003, -1.37546915e-004,
          2.32711245e-004, 2.05804841e-004, 5.57686843e-004,
          -1.64387486e-004, 3.68870969e-004, 4.46902821e-004,
          8.35082203e-004, -1.90985913e-003, 1.65970650e-005,
          1.14123372e-003, 9.34864453e-004, -1.82331569e-005,
          4.28952044e-004, 4.68099490e-004, 6.08005619e-004,
          5.89125324e-004, -1.60006876e-003, 2.95280770e-004,
          9.95696639e-004, 8.30189849e-004, 4.90904611e-004,
          -1.93466258e-004, 5.73049358e-004, 5.38736000e-004,
          1.94573135e-003, -3.28816852e-004, 1.84962308e-004,
          9.70177178e-004, 4.58727940e-004, -3.89936642e-004,
          -9.89783293e-005, 3.03189026e-005, 1.80744348e-004,
          5.32716687e-004, -1.20589091e-003, 4.87504905e-004,
          5.65131952e-004, 5.54681174e-004, 2.62609192e-005,
          -2.29349898e-004, 5.58968641e-005, 4.97962523e-004,
          2.08672811e-003, -3.28816852e-004, 1.25381234e-003,
          4.80499293e-004, 5.18565241e-004, -2.73018668e-004,
          -6.27313784e-005, 8.93429096e-005, 7.85696757e-005,
          1.12471404e-003, -3.04150482e-004, 6.09488518e-004,
          3.00389394e-004, 1.04619598e-004, -7.30381653e-005,
          -5.64299480e-005, -6.07029915e-006, 3.08375784e-005,
          6.03358436e-004, -3.04649031e-004, 5.73278929e-004,
          3.37508623e-004, 9.56832882e-005, -1.68307706e-005,
          -6.81449092e-006, 2.30704736e-005, 1.14134484e-004,
          1.17678905e-003, -3.15979763e-004, 1.17289182e-003,
          2.30965394e-004, 1.24580867e-004, 2.34832123e-006,
          3.59521691e-005, 6.68661305e-005, 1.29506880e-004,
          9.28934372e-004, -3.14871839e-004, 9.90323839e-004,
          2.93709134e-004, 1.68562707e-004, 9.10566378e-005,
          -2.29688376e-005, 1.34202273e-004, 2.15059874e-004,
          4.47985803e-004, -1.88371167e-004, 3.50295682e-004,
          2.48117663e-004, 3.98343836e-005, 7.48559105e-005,
          2.65539311e-005, 5.74726146e-005, 3.36664176e-004,
          6.25177985e-004, -1.69413601e-004, 6.17686892e-004,
          1.92336200e-004, 4.53568719e-005, 4.89449230e-005,
          2.64080973e-005, 2.02760450e-004, 2.20616465e-004,
          6.58215547e-004, -7.26079597e-005, 5.13447158e-004,
          3.17378406e-004, 9.84021899e-005, 4.70083578e-005,
          4.17329029e-005, 7.78735994e-005, 2.33210274e-004,
          1.03377609e-003, -1.77253241e-004, 3.67214583e-004,
          1.53905101e-004, 7.40500909e-005, 4.51042251e-005,
          -5.79525404e-005, -2.32905935e-004, 1.82605902e-004,
          2.89648073e-004, 2.12875835e-004, 6.38572150e-004,
          2.07547273e-004, -7.91168204e-005, -3.11642907e-007,
          -1.66955924e-005, -1.75563779e-004, 7.28703571e-006,
          8.05819363e-005, -1.02159218e-003, 7.50757317e-005,
          9.68744916e-006, -1.18946382e-005, 4.88929363e-005,
          9.36605793e-005, -2.04159951e-005, 3.14552715e-004,
          9.56878590e-004, 2.17730776e-004, 1.69686333e-004,
          -3.52537609e-005, -6.37095945e-005, 1.29813285e-004,
          1.19636694e-004, -8.37019616e-006, 2.25151103e-004,
          1.66684375e-004, -1.07024447e-003, 9.02683823e-005,
          1.54545505e-005, -5.71991734e-007, 1.43107987e-004,
          5.64785325e-004, 9.17174766e-005, -1.19878190e-004,
          -7.03908678e-004, -5.35103725e-003, 1.81140233e-004,
          3.73788818e-004, 4.76641289e-004, 6.36096520e-004,
          1.38718134e-003, 4.18301905e-004, 6.77810924e-004,
          6.04733999e-004, -1.64454617e-003, 2.13178006e-004,
          9.27632849e-004, 1.00853480e-003, 1.59234693e-003,
          1.29419495e-003, 8.03046860e-004, 4.10166918e-004,
          -2.54273880e-004, -4.47804434e-003, 4.06402978e-004,
          9.58917779e-004, 1.31283537e-003, 1.13559887e-003,
          2.75238766e-003, 1.45603949e-003, 1.81852235e-003,
          9.05592460e-004, -1.15876168e-003, 5.17309003e-004,
          1.26788276e-003, 1.77126902e-003, 2.74156104e-003,
          1.17642689e-003, 4.26669721e-004, 1.16529805e-003,
          7.53684028e-004, -2.41701072e-003, 1.08266642e-004,
          1.02061708e-003, 7.16604525e-004, 1.32024114e-003,
          1.53245311e-003, 3.31584975e-004, 1.01835222e-003,
          7.18901225e-004, -1.92822551e-003, 7.63836724e-004,
          1.29360717e-003, 7.00334669e-004, 1.56510773e-003,
          1.42490107e-003, 1.07148022e-003, 2.33787508e-003,
          1.10749027e-003, -1.01403263e-003, 6.94269256e-004,
          1.37221767e-003, 9.32465831e-004, 1.56743941e-003,
          1.80497102e-003, 6.00586820e-004, 1.50726596e-003,
          1.15249108e-003, -3.31937964e-003, 1.12553197e-003,
          1.94849167e-003, 7.29725754e-004, 1.48068077e-003,
          5.27684460e-004, 1.45508253e-004, 8.28584074e-004,
          5.99811261e-004, -3.32291983e-003, 8.75904050e-004,
          1.01639831e-003, 5.46302530e-004, 4.78594447e-004,
          -5.91852295e-004, -4.68715443e-005, 8.29931465e-004,
          7.09039217e-004, -1.34676357e-003, 4.56596346e-004,
          4.94094274e-004, 2.71747704e-004, -5.31873084e-004,
          2.37028085e-004, 2.96218874e-004, 1.19862321e-003,
          1.28530525e-003, -2.92729097e-003, 1.18481356e-003,
          1.45690690e-003, 6.33351621e-004, -1.18831922e-004,
          -4.53676417e-004, 3.93024500e-004, 1.74117996e-003,
          1.45366287e-003, 1.07102795e-004, 7.70535786e-004,
          1.13183772e-003, 4.20114025e-004, -6.65076659e-004,
          -1.09785171e-004, 9.85933584e-005, 4.64361423e-004,
          7.85506796e-004, -5.24623320e-004, 8.69688578e-004,
          9.61517275e-004, -1.51985057e-006, -1.70236046e-004,
          2.69788230e-004, 3.47581908e-006, 3.34041339e-004,
          1.05570699e-003, 3.02108616e-004, 1.57502724e-003,
          1.28003641e-003, 3.47448018e-004, 2.97434250e-004,
          -1.93468542e-004, 3.98279022e-004, 8.26891977e-004,
          1.35265815e-003, -1.39952730e-003, 6.39303646e-004,
          1.05494296e-003, -4.07553220e-004, -3.76873359e-004,
          4.96178509e-005, -3.57287063e-004, 5.29395242e-004,
          1.28380663e-003, -2.02920521e-004, 1.52055966e-003,
          1.43901911e-003, 1.79817405e-004, 1.71687163e-004,
          -6.73825707e-005, 2.31904065e-004, 7.81950948e-004,
          7.25094229e-004, 1.29561918e-003, 2.01186445e-003,
          1.61973317e-003, 6.88730739e-004, -1.59309675e-005,
          -1.23899709e-003, -6.56250995e-005, 5.00274240e-004,
          7.39815354e-004, -1.68682472e-003, 1.40342326e-003,
          1.14358438e-003, 3.28567170e-004, -1.20430440e-003,
          -3.89916007e-004, -2.67775933e-004, 5.99784835e-004,
          4.48221690e-004, -2.77365238e-004, 2.33767531e-003,
          2.41713971e-003, 7.91676517e-004, -3.68926529e-004,
          -1.50225509e-003, -6.31760122e-005, 6.69959642e-004,
          7.06139486e-004, -2.78472714e-003, 1.49313163e-003,
          1.49240741e-003, 5.43318456e-004, -1.51612563e-003,
          -3.79311605e-005, -1.11988757e-005, 3.82311991e-004,
          5.93923032e-004, -3.31574096e-003, 7.23859353e-004,
          5.04166004e-004, 1.23382080e-004, 2.06772980e-004,
          6.43942185e-005, 4.28483065e-004, 7.61992531e-004,
          3.97059630e-004, -2.29179813e-003, 4.87314683e-004,
          7.63844640e-004, 3.43075400e-004, 3.30551702e-004,
          -9.42615443e-004, 2.61583846e-005, 4.45969083e-004,
          8.69850919e-004, -3.48519837e-003, 9.13295837e-004,
          7.58974231e-004, 4.33599052e-004, -6.82970334e-004,
          -4.59036062e-004, 3.67925735e-004, 6.93143927e-004,
          1.29614928e-004, -1.53334066e-003, -2.52847443e-004,
          5.09485253e-004, 7.49934290e-004, 3.34630779e-004,
          -6.17778918e-004, 5.14125975e-004, 6.02303247e-004,
          3.44934204e-004, -2.24448019e-003, 9.14587639e-004,
          9.50055080e-004, 6.32295443e-004, -4.68672632e-004,
          -7.20799959e-004, 3.47641355e-004, 8.37847707e-004,
          6.72471884e-004, 3.76512005e-004, 5.96897386e-004,
          9.49269219e-004, 9.20077029e-004, -4.22399957e-004,
          7.51405241e-005, 8.31615762e-004, 8.56918807e-004,
          7.99266563e-005, -1.64675305e-003, 2.62004731e-004,
          5.69345721e-004, 7.91119644e-004, 5.43427945e-004,
          2.54461891e-004, 3.45112261e-004, 1.01067079e-003,
          5.12474217e-004, -6.93857728e-004, 7.82781746e-004,
          8.05553282e-004, 8.64543486e-004, 6.24004286e-004,
          3.12599732e-004, 2.95406178e-004, 8.66027141e-004,
          4.29040287e-004, -1.05724786e-003, -2.71645695e-004,
          6.44040760e-004, 7.49770377e-004, 4.63502540e-004,
          7.39368726e-004, 4.41204756e-004, 7.37404276e-004,
          -9.47448134e-004, -2.40896456e-003, -7.73127482e-004,
          6.25851448e-004, 4.02532896e-004, 7.70169951e-004,
          5.72686666e-004, -2.92958604e-004, 1.02402212e-003,
          8.82914639e-004, -1.11880037e-003, 5.49647142e-004,
          9.50629998e-004, 6.36865734e-004, 7.84808944e-004,
          3.30739917e-004, -5.06857701e-004, 6.98591117e-004,
          -8.02089577e-004, -2.09942763e-003, -9.09803275e-005,
          6.31714822e-004, 4.72890315e-005, 6.73054717e-004,
          1.41215895e-003, 2.58966465e-005, 1.57334318e-004,
          -3.96758871e-004, -2.06852052e-003, 5.72784687e-004,
          1.10123504e-003, 3.88269749e-004, 1.58966449e-003,
          1.56622671e-003, 2.22731163e-004, 3.62519029e-004,
          -3.47515946e-004, -2.97226827e-003, 9.22249747e-004,
          1.67699251e-003, 1.00536295e-003, 1.99347315e-003,
          3.22277629e-004, -9.61451500e-004, -5.04846976e-004,
          -3.24476190e-004, -3.33752087e-003, 1.74842033e-004,
          8.37929721e-004, 4.25094535e-004, 8.22816975e-004,
          1.21093448e-003, -9.55324213e-005, 9.91375418e-005,
          -8.04477429e-004, -1.51203573e-003, -3.03295383e-004,
          8.62106390e-004, 1.15230237e-003, 1.97385834e-003,
          1.78311748e-004, 7.10450768e-005, 3.45062494e-004,
          -9.09735973e-004, -1.78662909e-003, -2.99059437e-004,
          1.58118946e-003, 9.72589827e-004, 5.75010141e-004,
          3.25602741e-004, -1.44492014e-005, 5.24103758e-004,
          -3.17884638e-004, -2.28478713e-003, -3.52220464e-004,
          1.12503732e-003, 5.92118420e-004, 5.31798403e-004,
          1.32915680e-003, 5.61525230e-004, 1.03030144e-003,
          -7.01216282e-004, -1.29021134e-003, -6.19562692e-004,
          1.28111977e-003, 1.07147114e-003, 1.58162275e-003,
          1.30069873e-003, 5.23151481e-004, 6.24152191e-004,
          -1.02828501e-003, -1.87634898e-003, -3.07212438e-004,
          8.23168666e-004, 8.12592742e-004, 1.08752609e-003,
          3.92085785e-004, 1.04817598e-004, 4.97907575e-004,
          7.48161401e-004, 1.27024105e-004, -7.34799833e-005,
          3.84249324e-005, -1.46269522e-004, 3.89673980e-004,
          -7.64959084e-004, -3.09009833e-004, 4.76124056e-004,
          5.90169977e-004, -9.09731607e-005, 6.04939240e-004,
          7.29967549e-004, 5.63664180e-005, -5.30553749e-004,
          3.87752050e-004, 7.80549963e-005, -2.17974404e-004,
          -7.51087558e-004, -2.34890627e-004, 2.22076298e-004,
          -8.96154015e-005, -3.32684052e-004, 6.24293229e-004,
          -7.31003165e-005, -4.43915429e-004, 3.30818119e-004,
          3.50043119e-004, -9.80624347e-004, 1.03918905e-003,
          4.63359465e-004, -2.07720252e-004, 5.42231055e-006,
          -1.66717183e-003, 1.61097705e-004, 9.96492920e-004,
          5.73006400e-004, 6.34006923e-004, 1.24298167e-004,
          6.07443508e-004, -7.10488646e-004, -1.85232481e-003,
          -2.60755420e-003, 3.51176350e-005, 6.43442792e-004,
          8.72095814e-004, 1.08793983e-003, 9.04168584e-004,
          1.06316566e-005, -1.60061556e-003, -2.81655462e-003,
          -1.60554948e-003, 1.52071487e-004, 1.05051917e-003,
          1.80245284e-003, 6.86901330e-004, 9.31417977e-004,
          4.59925068e-004, -7.05195998e-004, -1.89526554e-003,
          -2.66873720e-003, 2.15151347e-004, 1.27617375e-003,
          1.95199694e-003, 1.47750042e-003, 1.73797633e-003,
          -1.89527636e-004, -1.62974035e-003, -2.98522366e-003,
          -2.37162854e-003, -4.69368330e-004, 3.44427302e-004,
          3.21769447e-004, 1.54530199e-003, 7.16415816e-004,
          2.77291783e-005, -6.86339394e-004, -2.25556642e-003,
          -1.95516669e-003, -1.69482781e-004, -1.96206438e-005,
          -6.32963201e-004, 7.99008645e-004, -1.70227358e-004,
          4.11655841e-004, -1.68815299e-004, -1.80119066e-003,
          -1.50367909e-003, 4.05252322e-005, 1.05099275e-003,
          1.00115594e-003, 9.84680373e-004, 1.18685048e-003,
          4.32811939e-004, -3.67099216e-004, -1.38266943e-003,
          -8.83129251e-004, -5.15778374e-005, -2.97602994e-004,
          -8.21926573e-004, -2.65494135e-004, -4.29386360e-004,
          6.52368530e-004, -7.95133892e-005, -6.34623517e-004,
          -7.54501321e-004, -6.53973606e-004, -7.01638171e-004,
          -2.91622448e-004, 1.13352155e-003, 2.13130304e-004,
          -5.56399580e-004, -5.35072410e-004, -5.49225428e-004,
          -1.40890747e-003, -1.10480189e-003, -5.78297826e-004,
          4.07551444e-004, -4.55600384e-005, -1.03120947e-004,
          -1.15720415e-003, -1.20469776e-003, -1.41819729e-003,
          -1.90981038e-004, -4.47949074e-004, -7.27754668e-004,
          1.35260307e-005, 5.72780671e-004, -4.22811543e-004,
          -6.64386025e-004, -7.40346150e-004, -1.22018988e-004,
          -7.79457972e-004, -1.08837592e-003, 5.09736565e-005,
          6.64692081e-004, 2.25728552e-004, -6.14357705e-004,
          -1.43063453e-003, -1.56688446e-003, -9.74742696e-004,
          -2.73399125e-003, -8.11982201e-004, -3.71354865e-004,
          -3.44783068e-004, 2.24571049e-004, -1.77768990e-004,
          -6.12290576e-004, -7.07149971e-004, -2.57960567e-003,
          -2.90885777e-003, -1.27632008e-003, -4.68414102e-004,
          7.20595766e-004, 2.31000455e-003, 8.71310593e-004,
          6.22750258e-006, -4.82644798e-004, -2.60428223e-003,
          -1.59607537e-003, -4.37690440e-004, 7.20083044e-005,
          2.01446946e-005, 5.94316989e-005, 2.22698669e-004,
          -6.03348657e-004, -4.64474957e-004, -1.60076434e-003,
          -5.87916526e-004, -3.58274556e-004, -1.11971431e-005,
          2.03979551e-003, 2.68316711e-003, 1.94881670e-003,
          2.66771764e-004, 2.32775536e-004, -2.06198456e-004,
          -1.20200915e-003, -1.06632290e-003, -4.35958937e-004,
          5.23900526e-005, 7.19256641e-004, 3.84203217e-004,
          2.92049255e-004, -4.84102929e-004, -8.85193003e-004,
          -1.57945661e-003, -1.23805855e-003, -9.20629944e-004,
          -4.65227145e-004, 7.17427523e-004, -1.32861885e-003,
          -6.61423401e-005, -7.33687077e-004, -1.54733309e-003,
          3.63458035e-004, -6.15556666e-004, 2.97374878e-004,
          9.22444626e-004, 1.13330013e-003, 1.03334046e-003,
          9.08584683e-004, -4.87632024e-005, 4.87473182e-004,
          -2.16717861e-004, -7.30494910e-004, -3.96762807e-005,
          -7.07582047e-004, 1.43538916e-003, -8.89280403e-004,
          3.99495475e-004, -3.82891914e-004, -3.51963216e-004,
          -2.72012129e-003, -1.08732667e-003, -9.51943686e-004,
          -4.43078286e-004, 1.36436336e-003, -6.64801453e-004,
          -1.31717112e-004, -4.04622668e-004, -2.59667053e-003,
          -2.96975253e-003, -9.70636785e-004, -1.13205795e-004,
          8.15683336e-004, 2.16981326e-003, 1.00331381e-003,
          3.09046358e-004, -1.59038958e-004, -2.65661394e-003,
          -6.84708939e-004, -3.86550120e-004, -7.36429414e-004,
          -9.96851013e-005, 1.96241564e-003, -4.57523274e-004,
          4.67904989e-004, 1.82460470e-004, -8.10116253e-005,
          -9.49729350e-004, -1.84676479e-004, 6.05660316e-004,
          1.15216372e-003, 1.97196356e-003, 1.08666194e-003,
          1.53116055e-003, 4.23033896e-004, -5.54209284e-004,
          -3.00228666e-003, -3.01088119e-004, 3.28706810e-004,
          7.28834362e-004, 2.46180198e-003, 1.53211469e-003,
          7.38407834e-004, 4.75824054e-005, -2.85770185e-003,
          -3.41345929e-003, -2.77496612e-004, 7.71821703e-007,
          5.05914912e-004, -3.56166594e-004, 3.51199851e-004,
          1.94962500e-004, -2.49750912e-004, -3.13891424e-003,
          -1.75936404e-003, -9.42714469e-005, 8.41420784e-004,
          9.91775771e-004, 3.17985145e-003, 1.72872772e-003,
          2.58269534e-003, 6.98684482e-004, -1.63011765e-003,
          -2.78763636e-003, -4.69743129e-004, 1.77823138e-004,
          -2.85076821e-004, 1.34722830e-003, 6.03561057e-004,
          6.87453081e-004, -2.23166644e-005, -3.11263511e-003,
          -2.45941523e-003, -6.84984334e-005, -8.04316369e-006,
          9.18579870e-004, 7.23157311e-004, 1.12433324e-003,
          -2.39807541e-005, -2.73727404e-004, -2.55667721e-003,
          -9.54986433e-004, -2.14330212e-004, -3.58432997e-004,
          -1.73418914e-004, 8.21854628e-004, 9.79854492e-004,
          -2.08654674e-004, -1.55950911e-004, -1.23163918e-003,
          -2.95249396e-003, 1.98556863e-005, -1.34780872e-004,
          3.59002879e-004, 1.21861242e-003, 6.58477540e-004,
          -1.65768681e-004, 7.38661402e-005, -3.17175128e-003,
          -1.00073044e-003, -2.74205260e-004, 1.93628963e-004,
          7.72939311e-005, 1.37908373e-003, 8.75755679e-004,
          -4.37872863e-004, -1.34471979e-004, -1.23991747e-003,
          -1.24329829e-003, -2.42698530e-004, -5.58955362e-005,
          -1.91750019e-004, 2.26529804e-003, 2.81959132e-004,
          -3.24611785e-004, -2.34715611e-004, -1.36083027e-003,
          -2.49881297e-003, 3.22103879e-004, 4.30882028e-005,
          4.16743307e-004, 1.21741032e-003, 1.11457915e-003,
          4.23749676e-004, 1.70418891e-004, -2.58642039e-003,
          -1.22611737e-003, -4.11849993e-004, -1.35072070e-004,
          -6.13026321e-004, 1.29675353e-003, 6.31980947e-004,
          2.48344459e-005, 5.48641874e-005, -1.37125410e-003,
          -2.54545873e-003, 3.78644501e-004, 4.30107961e-004,
          -1.44607384e-005, 2.09935970e-004, 1.22663903e-003,
          7.89378304e-004, 6.71741960e-004, -2.51032435e-003,
          -2.04097689e-003, 3.93149559e-004, 6.34658849e-004,
          3.41613661e-004, 1.02146808e-003, 1.05447008e-003,
          6.65700471e-004, 3.74171505e-004, -1.87706854e-003,
          -2.14681355e-003, 1.47455183e-004, 1.17355457e-003,
          1.03480334e-003, 1.28902058e-004, 1.45127019e-003,
          1.19800807e-003, 5.40706213e-004, -1.83060940e-003,
          -2.26550503e-003, 6.90574001e-004, 6.36784767e-004,
          2.01294024e-004, 6.59107827e-005, 3.71221773e-004,
          6.15560333e-004, 6.90114102e-004, -2.04042159e-003,
          -2.04405468e-003, -1.53073888e-005, 9.89639899e-004,
          1.29488053e-005, 2.89746356e-004, 1.63331442e-003,
          1.69050007e-003, 9.24451393e-004, -1.53042690e-003,
          -9.76687996e-004, -9.89390610e-005, 3.31449788e-004,
          1.00720674e-003, -1.34259043e-003, 1.91473239e-003,
          1.40738534e-003, 1.90257066e-004, -8.92732176e-004,
          -6.13893499e-004, -3.06208007e-004, -2.56249506e-004,
          -5.91779062e-005, -1.74339162e-003, 1.04376348e-003,
          1.50294811e-003, 4.73328750e-004, -7.70328275e-004,
          -1.72347971e-003, -7.70019469e-005, 4.23641381e-004,
          6.09992770e-004, -1.55151018e-003, 2.75596255e-003,
          2.25315383e-003, 5.81945409e-004, -1.27614255e-003,
          -7.10863445e-004, -6.87022475e-005, 5.10918733e-004,
          5.85651433e-004, -2.83166853e-004, 1.79927982e-003,
          2.72102398e-003, 7.68600614e-004, -6.04847970e-004,
          -8.67124938e-004, -6.15368845e-005, 4.57146292e-004,
          -2.05631804e-004, -7.30844680e-004, 8.98094440e-004,
          1.49410509e-003, 7.65441160e-004, -5.38088847e-004,
          -4.80856688e-004, -8.22321861e-004, -7.50968989e-004,
          -1.61816564e-003, -2.29480932e-003, 6.88419270e-004,
          1.75938092e-003, 9.33055300e-004, 7.46312253e-006,
          -2.89209565e-004, 3.15699261e-004, 6.42592378e-004,
          7.58078357e-004, -9.12789430e-004, 1.47362007e-003,
          2.23261514e-003, 8.19897279e-004, 8.05066520e-005,
          5.60738903e-004, -6.51767768e-004, -3.60963546e-004,
          -1.28325657e-003, -2.19151005e-003, 3.30792333e-004,
          1.90169842e-003, 6.86639105e-004, 1.00928801e-003,
          8.05838063e-005, -1.06628344e-003, -4.74169239e-004,
          -5.80935564e-004, -1.30481203e-003, 4.78179398e-004,
          1.23445189e-003, 3.41222098e-004, 2.17817738e-004,
          8.59772786e-004, -9.75598596e-005, 3.30440031e-004,
          -2.17651512e-004, -2.14059744e-003, -7.57468981e-004,
          7.19477073e-004, 3.71190399e-004, 1.10876374e-003,
          1.32053019e-003, -1.11118890e-003, -2.17428125e-004,
          -7.60057010e-004, -5.58663334e-004, 6.44307525e-004,
          1.53338898e-003, 4.69832477e-004, 1.70435477e-003,
          1.77291560e-003, -6.35230317e-005, 7.95089349e-004,
          -9.66735301e-004, -1.07392541e-003, -8.95297504e-004,
          5.05965552e-004, 3.13937198e-004, 2.04165210e-003,
          6.47014705e-004, 8.74526741e-005, -1.69982042e-004,
          -1.29715900e-003, -4.27533360e-003, -6.78608310e-004,
          6.46790664e-004, 3.04001820e-004, 6.93430367e-004,
          1.95935462e-003, 1.18648713e-004, 3.67467699e-004,
          -3.49327049e-004, -2.27566552e-003, -4.18324227e-004,
          8.80997803e-004, 2.23802621e-004, 2.02212017e-003,
          1.36861519e-003, 2.87189730e-004, 3.26534791e-004,
          -1.64219690e-003, -2.97537749e-003, -4.06427309e-004,
          4.22359386e-004, 4.44241101e-004, 1.55474828e-003,
          2.34955200e-003, 3.42058425e-004, 1.12267770e-003,
          9.15599085e-005, -3.66435124e-004, -5.45545074e-004,
          8.45689559e-004, 5.08512545e-004, 2.50155386e-003,
          9.47559020e-004, -2.28623656e-004, -8.75138503e-005,
          -9.86436498e-004, -1.49373501e-003, -3.97694734e-004,
          3.73139948e-004, -7.55376022e-005, 8.77485378e-004,
          6.91813693e-006, 2.38888591e-004, 6.38618658e-004,
          5.07099146e-004, -3.81600740e-003, 2.50341836e-004,
          -5.12119848e-004, -6.15887344e-004, -1.65887741e-005,
          3.05163837e-003, 2.02612995e-004, 1.40252334e-004,
          -1.82830903e-004, -8.34145583e-004, -3.55380384e-004,
          7.27226899e-004, 4.12418420e-004, 3.02037923e-003,
          2.78862310e-003, 8.74687801e-004, 7.59663817e-004,
          9.54690797e-004, -3.01614008e-003, 4.09678207e-004,
          2.25518219e-004, -4.04029357e-004, 2.67434353e-003,
          -7.48709892e-004, 2.17898749e-004, 2.93030927e-004,
          1.02992787e-003, -1.49624154e-003, 8.60469823e-004,
          6.85362145e-004, 6.52721865e-005, -5.79756452e-004,
          -1.23549881e-003, 7.94108382e-006, -2.45108764e-004,
          -1.30353219e-004, 6.01710984e-004, 6.72155817e-004,
          5.12601633e-004, 1.68431987e-004, -1.10215938e-003,
          1.54803100e-003, 8.67539260e-004, 9.89533379e-004,
          9.29987291e-004, -1.74822973e-003, 4.95904766e-004,
          7.56800175e-004, -3.95158771e-004, 1.41881395e-003,
          7.30983520e-005, 4.13727830e-004, -3.94048373e-004,
          -2.90091441e-004, -3.31020477e-004, 6.23416738e-004,
          1.40437542e-003, 2.49106815e-004, 9.63766797e-005,
          -1.63242267e-003, -6.61931466e-004, -5.51589823e-004,
          -4.61524382e-004, 7.05494953e-004, -1.61841512e-004,
          -6.63543120e-004, -4.96368215e-004, -1.37277611e-003,
          -1.15067966e-003, -8.31180718e-004, -2.16796543e-004,
          8.04259835e-005, 1.81815610e-003, 7.99848858e-005,
          -3.54600197e-004, -2.62148998e-004, -7.89690821e-004,
          -3.70774651e-004, -4.70428116e-004, -2.57111591e-004,
          -9.51372669e-004, 8.12343264e-004, 2.29639423e-004,
          3.75500182e-004, 3.60493068e-005, -3.94058821e-004,
          4.82950243e-004, -4.63274628e-004, 6.33243006e-004,
          3.07578593e-005, 8.09034216e-004, -1.80459916e-004,
          -7.13396366e-005, 2.50918238e-004, 6.23713830e-004,
          -1.77322640e-004, 3.25866480e-004, 9.04272019e-004,
          8.73477547e-004, -7.01893645e-004, -6.62822393e-004,
          4.64735203e-004, 1.05288484e-004, -2.06931407e-004,
          -7.43673736e-005, 4.00057936e-004, 6.70261739e-004,
          1.33044214e-003, -2.83989054e-003, 5.84202135e-005,
          1.10656349e-003, 2.71437020e-004, -2.70116696e-004,
          8.92535900e-004, -2.84383714e-004, 2.72968551e-004,
          4.93051601e-004, -2.02182308e-003, -8.76735081e-004,
          5.88773692e-004, 5.44605893e-004, 6.88183121e-004,
          1.48236402e-003, 2.95164093e-004, 3.99343029e-004,
          -5.06008073e-005, -3.39032291e-003, -2.02221199e-004,
          1.54921715e-003, 9.00930027e-004, 1.11549604e-003,
          -1.24475057e-003, 1.08747539e-004, 6.76704338e-004,
          6.49774098e-004, -4.41992516e-003, 4.58375667e-004,
          6.27463276e-004, 9.68699314e-005, -1.25862542e-003,
          -6.97467360e-004, 4.41082200e-004, 9.81214107e-004,
          1.42383762e-003, -2.03634100e-003, 1.46017654e-003,
          3.24954482e-004, 3.27753922e-004, -6.12821605e-004,
          -2.50315003e-004, 8.63627065e-004, 1.54550560e-003,
          -8.93815086e-005, -3.45107098e-003, 1.62864639e-003,
          1.31211488e-003, 3.79417295e-004, -4.05061786e-004,
          -2.36082469e-005, 1.35986647e-003, 2.02173810e-003,
          7.86433578e-004, -2.10194802e-003, 3.09447455e-003,
          1.51281897e-003, 6.09329727e-004, -4.85626661e-005,
          8.45236762e-004, 7.00090080e-004, 9.47828987e-004,
          1.61400228e-003, -2.03861576e-003, 8.41963163e-004,
          8.41143599e-004, 4.21585166e-004, 8.77786311e-004,
          -1.00859895e-003, 6.42800878e-004, 1.25106890e-003,
          1.02832448e-003, -2.71874131e-003, 6.38118887e-004,
          1.44136255e-003, 7.39851850e-004, -8.35701183e-004,
          -1.05177067e-004, 1.07512623e-003, 1.31764764e-003,
          1.29889685e-003, -1.50043028e-003, 1.33574044e-003,
          9.04008106e-004, 5.16146072e-004, -2.89052026e-004,
          -2.77267955e-003, 4.04952618e-004, 1.02753460e-003,
          1.05850783e-003, -1.48020370e-003, 1.42462703e-003,
          1.08944101e-003, 6.02324202e-004, -2.46757246e-003,
          -5.08636585e-004, 1.02608719e-004, 2.05240329e-004,
          6.74475858e-004, -2.99442094e-004, 3.88434972e-004,
          3.94351024e-004, 4.75784036e-004, -4.34530491e-004,
          -6.31061048e-005, 9.52632618e-005, 6.06058689e-004,
          2.11515324e-003, -9.24346910e-004, 1.43612106e-003,
          2.36788881e-004, 3.67454544e-004, -3.28505645e-004,
          -8.47757037e-004, 1.96804249e-005, 4.20786469e-004,
          7.85498356e-004, -4.12183115e-004, 6.58106059e-004,
          2.51870253e-004, 3.72514070e-004, -6.96804200e-004,
          -7.02656835e-005, -2.18160203e-005, 8.36981577e-004,
          3.15393833e-003, -9.36645607e-004, 1.65460666e-003,
          2.99352745e-004, 2.33099156e-004, -4.57774062e-004,
          1.19943157e-004, 6.07085749e-005, 1.84478107e-004,
          9.33610194e-004, -5.30165329e-004, 1.04378024e-003,
          1.21537676e-004, 7.87239551e-005, 9.76351075e-005,
          1.64841385e-005, 8.59813954e-005, 1.46229300e-004,
          4.97465488e-004, -5.28346398e-004, 1.16364902e-003,
          2.05403223e-004, 7.59607210e-005, 2.28352128e-005,
          1.29259919e-004, 1.48940700e-004, 3.47459456e-004,
          1.91064971e-003, -5.20270492e-004, 7.79357040e-004,
          1.60686381e-004, 1.62801516e-004, 1.83831711e-004,
          9.05416255e-006, 1.39490468e-004, 2.76530627e-004,
          9.98737407e-004, -5.26960299e-004, 8.74687277e-004,
          1.30645058e-004, 1.33228850e-005, 8.87781243e-006,
          -2.03746731e-005, 1.77140915e-004, 2.37316388e-004,
          4.40953503e-004, -2.40405294e-004, 6.39673555e-004,
          2.34118561e-004, 9.57307348e-005, 2.17063516e-005,
          -1.68494025e-005, 9.36691358e-005, 1.64901328e-004,
          5.71550976e-004, 4.08516389e-005, 7.41630269e-004,
          1.53025787e-004, 8.03671574e-005, 9.65149593e-006,
          -7.10626337e-005, 1.10605564e-004, 7.98113615e-005,
          8.79390427e-005, -4.91758110e-004, 4.38692601e-004,
          2.45474512e-004, 1.30053420e-004, 3.96287360e-005,
          -1.38882315e-004, 1.78644077e-005, -4.95448803e-005,
          -3.22180247e-004, 4.32260313e-005, 1.31107471e-003,
          1.64806595e-004, 1.04054940e-004, -3.56787314e-005,
          -4.88018413e-005, 3.86358370e-005, 1.25465565e-004,
          2.43897361e-004, 1.59557778e-004, 3.58401128e-004,
          1.13043861e-004, 1.62808046e-005, -1.10280484e-006,
          5.59523460e-006, 6.37273615e-006, 1.10160996e-004,
          1.86557081e-005, -7.33744178e-004, 4.66599558e-005,
          1.26366926e-004, 6.49620852e-005, 4.93283915e-005,
          -1.39361262e-004, 4.76798596e-005, 9.12401174e-006,
          -5.15449967e-004, 1.55533809e-004, 1.55015767e-003,
          1.41905693e-004, -7.76352317e-005, -1.61957068e-005,
          -1.18876465e-004, -1.68749102e-005, -1.11688687e-005,
          -1.07244086e-004, -3.78628320e-004, 1.75267225e-004,
          2.96888393e-005, -4.52798777e-005, -2.36828982e-005,
          3.41080915e-004, 5.20820264e-004, 3.24593653e-004,
          4.65949328e-004, -1.85496593e-003, 7.74391752e-004,
          1.17405888e-003, 1.04210433e-003, 3.36435740e-004,
          6.64863153e-004, 1.00905541e-003, 8.29722208e-004,
          7.18616357e-004, -2.81695323e-003, 1.54960435e-003,
          1.21126021e-003, 1.17135374e-003, 6.15039899e-004,
          4.32260887e-004, 5.45920746e-004, 8.37092579e-004,
          6.94741379e-004, -1.88865454e-003, 1.26995065e-003,
          1.15074497e-003, 6.62124366e-004, 4.08227672e-004,
          2.24308780e-004, 1.13110035e-003, 1.49766868e-003,
          8.83650267e-004, -2.10530404e-003, 1.43061741e-003,
          1.57077331e-003, 9.26709559e-004, 4.41157572e-005,
          2.72797828e-004, 9.96536808e-004, 1.60745624e-003,
          1.26115384e-003, -1.72969385e-003, 2.09189579e-003,
          1.09627144e-003, 5.98764571e-004, 1.59541669e-004,
          1.33438583e-003, 6.03015360e-004, 1.39541901e-003,
          1.16195297e-003, -4.59060026e-003, 1.01171632e-003,
          1.03468879e-003, 3.73176794e-004, 1.16687373e-003,
          5.14729123e-004, 9.29993985e-004, 1.92567566e-003,
          1.38965144e-003, -1.26919895e-003, 1.78621220e-003,
          1.48830411e-003, 7.84085540e-004, 6.46904402e-004,
          1.21585559e-003, 4.38334886e-004, 9.62817576e-004,
          8.69796728e-004, -4.48624417e-003, 8.95597623e-004,
          1.05733355e-003, 4.13637608e-004, 1.26954308e-003,
          7.02792779e-004, 8.32966645e-004, 1.39614881e-003,
          1.11554156e-003, -4.55008075e-003, 1.19338918e-003,
          9.91871580e-004, 2.89321004e-004, 4.56167094e-004,
          7.17615534e-004, 1.21644244e-003, 1.97703624e-003,
          1.34807115e-003, -1.64299505e-003, 1.37716485e-003,
          1.33836654e-003, 5.69251017e-004, 5.35978470e-004,
          8.29850673e-004, 5.22470335e-004, 7.52670283e-004,
          4.88868973e-004, -4.76063835e-003, 6.15759986e-004,
          1.06918754e-003, 2.69167882e-004, 8.32347432e-004,
          1.54204073e-003, 1.06302905e-003, 1.81541825e-003,
          1.47060910e-003, -2.03584810e-003, 1.48072885e-003,
          1.60528731e-003, 6.40756567e-004, 1.45137776e-003,
          2.41109592e-004, 9.58573248e-004, 1.83467020e-003,
          1.41795375e-003, -3.89861735e-003, 1.20805646e-003,
          1.19467522e-003, 4.07239626e-004, 8.11239370e-005,
          1.27727189e-003, 5.93035365e-004, 1.16145925e-003,
          9.04858345e-004, -9.36396944e-004, 1.62156089e-003,
          1.53563125e-003, 7.61760981e-004, 1.12466875e-003,
          -3.37716483e-004, 1.01765455e-003, 1.74574333e-003,
          1.53600192e-003, -4.16717352e-003, 1.58635946e-003,
          1.16967724e-003, 3.62667430e-004, -6.24137174e-004,
          -1.98282054e-004, 9.21729777e-004, 1.63173722e-003,
          1.34410593e-003, -1.60759687e-003, 2.43167114e-003,
          1.55671383e-003, 5.50137425e-004, -3.16145975e-004,
          8.35582090e-004, 4.65319288e-004, 1.23216095e-003,
          3.69307585e-004, -6.99541008e-004, 1.16389897e-003,
          1.17901096e-003, 5.61295950e-004, 9.56970558e-004,
          7.56532245e-004, 5.82738197e-004, 7.74754095e-004,
          9.43507359e-004, -2.99915997e-003, 1.19341689e-003,
          9.95563110e-004, 3.56834324e-004, 9.04817251e-004,
          4.30384447e-004, 3.80192650e-004, 9.79090226e-004,
          3.56132165e-004, -5.83621906e-004, 1.38250552e-003,
          1.41374744e-003, 4.86510311e-004, 7.20023643e-004,
          6.69243354e-006, 1.42173158e-004, 6.03717228e-004,
          4.59982024e-004, -2.34230934e-003, 1.05963426e-003,
          1.04536361e-003, 2.51788471e-004, 2.45458883e-004,
          1.78755529e-003, 1.64623692e-004, 1.80881063e-004,
          7.11574859e-004, -2.90774298e-003, 1.21068617e-003,
          1.05730642e-003, 5.87440969e-004, 1.97370700e-003,
          1.72521593e-003, 1.57774717e-004, -5.04055410e-004,
          -4.81647876e-004, -3.81380972e-003, 9.72945127e-005,
          1.41964527e-003, 8.68719304e-004, 1.84877845e-003,
          1.23261882e-003, -2.66103976e-004, 1.93581363e-004,
          4.54568915e-004, -2.48240656e-003, 1.10038510e-003,
          8.61844397e-004, 4.19795746e-004, 1.39724324e-003,
          1.60286238e-003, -4.17465490e-005, -3.02007771e-004,
          1.34210568e-004, -3.71075049e-003, 9.23734158e-004,
          1.11824565e-003, 7.74313987e-004, 1.76079548e-003,
          9.50624293e-004, 7.53675646e-004, 7.14902766e-004,
          -6.22446096e-005, -6.48470188e-004, 2.86503171e-004,
          1.10635522e-003, 6.44809334e-004, 7.62449403e-004,
          -1.85324079e-005, 3.01423483e-004, 5.69914817e-004,
          4.26111597e-004, -1.20373105e-003, 1.36104383e-004,
          6.27793139e-004, 3.57820099e-004, 1.13914051e-004,
          -3.34354612e-004, 6.53531984e-004, 7.87660363e-004,
          6.32985844e-004, -1.02542550e-003, 8.07673030e-004,
          1.04810856e-003, 6.61699800e-004, -5.56548533e-004,
          -1.05734926e-003, 2.07083795e-004, 9.05343331e-004,
          2.55349500e-004, -4.66143829e-004, -5.66886563e-004,
          4.07689397e-004, 1.90342427e-004, -1.07325648e-003,
          -4.20698139e-004, -9.78706157e-005, 9.51559632e-005,
          8.00530426e-004, -2.23961822e-003, 6.11049822e-004,
          8.44718830e-004, 4.69336868e-004, -1.72386935e-004,
          3.13528144e-004, -2.14132233e-004, 9.22661857e-005,
          2.51379475e-004, -2.35676719e-003, 9.28071036e-004,
          1.00583921e-003, 3.29695089e-004, 4.38102812e-004,
          -5.00861752e-005, 1.33345284e-005, 4.65054327e-004,
          4.38349962e-004, -1.79873931e-003, 4.91064100e-004,
          8.95665784e-004, 4.67628619e-004, 1.24525744e-004,
          5.57168911e-004, -3.24567402e-004, -3.83497245e-004,
          -7.12821638e-005, -2.02457886e-003, 1.10676768e-003,
          1.05936709e-003, 6.65724569e-004, 7.83947879e-004,
          1.97858224e-003, -2.55382271e-004, 1.44431717e-004,
          3.86538683e-004, -4.29077959e-003, 3.92488495e-004,
          8.32650985e-004, 3.08855029e-004, 2.01554899e-003,
          2.01817229e-003, 2.00283430e-005, 6.15016441e-004,
          3.62252576e-005, -2.35825172e-003, -8.78782419e-004,
          4.57058719e-004, 3.23440996e-004, 2.20578094e-003,
          1.32017280e-003, -4.45169833e-004, -2.68709118e-004,
          -6.48743298e-005, -4.28958610e-003, 9.39120306e-004,
          1.09492498e-003, 6.00910222e-004, 1.50570681e-003,
          2.08533881e-003, -1.27674255e-004, 1.46180697e-004,
          -5.63701033e-004, -2.48713582e-003, 4.54791589e-004,
          5.70179429e-004, 3.62009683e-004, 2.21924973e-003,
          4.98015375e-004, 1.46914579e-004, 7.48782477e-004,
          2.54578394e-004, -1.03447260e-003, -1.01629389e-003,
          1.89696424e-004, 8.97660357e-005, 4.52991284e-004,
          3.05369991e-004, 7.70272454e-005, 1.87181329e-004,
          -4.07815911e-004, -1.45078148e-003, -6.79648540e-004,
          -1.73470180e-004, 1.25574239e-004, 4.07220097e-004,
          -2.26019503e-004, -3.23503686e-004, 3.22177511e-004,
          4.95007189e-005, -4.78005590e-004, -3.83570470e-004,
          6.76127968e-007, 3.48400754e-005, -1.26446219e-004,
          -1.13793020e-003, -3.64038628e-004, -2.93332472e-004,
          -2.00534239e-004, -1.02402736e-003, 2.18541842e-004,
          -2.46822950e-004, 8.25029420e-005, -6.62076287e-004,
          -9.25300177e-004, -2.68911303e-004, -2.43235700e-004,
          -1.74204353e-004, 1.76156493e-004, 2.43641916e-004,
          -3.68567707e-004, -2.14348547e-004, -5.53946244e-004,
          -2.01265258e-003, -3.96172371e-004, -3.83270060e-004,
          1.57454604e-004, 1.51587563e-004, 8.73855664e-004,
          -2.46341166e-004, -1.56688999e-004, -1.73268840e-003,
          -1.68481935e-003, -2.93950667e-004, -5.78107603e-004,
          6.20162173e-004, 5.31072728e-004, 7.86353077e-004,
          -1.71428648e-004, -1.13685324e-004, -1.46262173e-003,
          -2.36220704e-003, -5.43886912e-004, -5.07962541e-004,
          5.17575885e-004, 5.75358223e-004, 8.10996629e-004,
          1.79282171e-004, -1.86099336e-004, -2.13394966e-003,
          -2.70125456e-003, -4.01309488e-004, 1.35722745e-004,
          7.15379079e-004, 1.50303787e-003, 9.73084068e-004,
          4.51162894e-004, 1.65976613e-004, -2.58318102e-003,
          -3.25890956e-003, -6.92847068e-004, -2.83318718e-006,
          7.24170764e-004, 2.76521011e-003, 7.59798801e-004,
          1.73597437e-004, -1.89635699e-004, -3.01198428e-003,
          -2.16794456e-003, -3.20671737e-004, 2.31320264e-005,
          6.75508782e-005, 8.14883795e-004, 3.70147667e-004,
          4.35545779e-004, 2.72100588e-004, -1.97243434e-003,
          -2.00677826e-003, -9.04259447e-004, -5.79918444e-004,
          4.94018779e-004, 2.20510480e-003, 3.38248734e-004,
          -1.10991852e-004, -8.70679723e-005, -1.59678538e-003,
          -1.84802036e-003, -6.91362366e-004, 2.53040489e-004,
          3.84411367e-004, 2.14093667e-003, -2.67749361e-004,
          -5.21681388e-004, -2.20146161e-004, -1.31755567e-003,
          -1.37452234e-003, -5.16037224e-004, -2.94250640e-004,
          -3.16063117e-004, 8.40753259e-004, -9.82788973e-004,
          -1.01376511e-003, -6.41719322e-004, -7.87680619e-004,
          -9.81038203e-004, -1.16358453e-003, -5.50794764e-004,
          2.32946782e-004, 2.29505310e-003, -4.45124751e-004,
          -4.27797175e-004, 1.20343157e-005, -3.05091264e-004,
          -4.51150525e-004, -1.19650515e-003, -6.86944171e-004,
          -3.45881475e-004, 7.44107121e-004, 7.44039644e-005,
          -7.51812826e-004, -5.16877299e-005, 3.14647099e-004,
          -1.37045060e-003, -6.10544346e-004, -3.73109389e-004,
          4.96632420e-004, 1.33579643e-003, -9.40628641e-004,
          -1.01431494e-003, -6.26940164e-004, -1.17216830e-003,
          -1.32944877e-003, -7.02388759e-004, -1.20595316e-004,
          -1.53466943e-004, 7.21997756e-004, -1.86262696e-004,
          -7.13457048e-005, -8.04267998e-004, -1.58906542e-003,
          -1.15681137e-003, -7.27808627e-004, -2.04222917e-004,
          -5.37579581e-006, -5.01437346e-004, -4.01884812e-004,
          -5.83144101e-005, -3.93288283e-005, -7.57224800e-004,
          -1.14041881e-003, -4.37428360e-004, -7.40266696e-005,
          -3.58795728e-006, 1.41941314e-003, 8.24562521e-005,
          9.59972793e-004, -2.88398500e-004, -1.50318269e-003,
          -2.31924048e-003, -5.64743823e-004, -4.57602291e-005,
          -4.46633494e-004, 1.57718512e-003, 6.75696996e-004,
          6.52160787e-004, -2.17765963e-004, -2.31400086e-003,
          -3.06945923e-003, -8.31875659e-004, -8.71310534e-004,
          8.16074782e-004, 2.55741714e-003, 2.03162106e-003,
          6.94378221e-004, 4.74833825e-004, -2.75949272e-003,
          -2.42431485e-003, -6.92912843e-004, -9.60391655e-004,
          -3.56177450e-004, 2.14325637e-003, 1.88736056e-004,
          4.69123072e-004, -2.05772827e-004, -2.52209697e-003,
          -4.39596130e-003, -1.91283913e-003, -2.17349082e-003,
          -9.52651666e-004, 1.19802076e-003, 1.50819041e-003,
          2.33847692e-004, -1.89158716e-004, -4.13802546e-003,
          -2.74286722e-003, -5.91657765e-004, -8.27267300e-004,
          6.98770629e-004, 7.58717651e-004, 1.40833005e-003,
          1.06668682e-003, 3.50527087e-004, -2.53535528e-003,
          -2.24972935e-003, -2.30846519e-004, -7.06698745e-004,
          -6.60493621e-004, 2.21553841e-003, 3.06165923e-004,
          8.62562738e-004, 3.94680072e-004, -2.09804811e-003,
          -3.09851137e-003, -7.21384422e-004, -3.43770284e-004,
          1.52647961e-004, -4.61238815e-004, 2.29407591e-003,
          1.24093506e-003, 2.69697281e-004, -2.90614413e-003,
          -1.47900998e-003, -1.04742641e-004, 9.90631015e-005,
          -5.80378401e-004, 1.90394965e-003, 1.54253619e-003,
          1.44795643e-003, 9.04276036e-004, -8.76394857e-004,
          -1.39309466e-003, -3.77625198e-004, -6.23878033e-004,
          -1.88043603e-004, 1.07125612e-003, 2.61556474e-004,
          5.29738551e-004, 4.42202698e-004, -8.95917066e-004,
          -1.14800525e-003, -1.94784996e-004, 1.06381834e-004,
          8.09690275e-004, -1.10779241e-004, 4.85189346e-004,
          1.10985711e-003, 6.30263763e-004, -4.92645078e-004,
          -5.02681767e-004, -2.41946662e-004, 3.28095310e-004,
          -5.92362427e-004, 4.24413389e-004, -3.34450859e-004,
          4.86160745e-004, 6.55263430e-004, -1.00062913e-004,
          -6.99646131e-004, -3.22671200e-004, -1.34083879e-004,
          -3.95754178e-004, -1.35274662e-003, -8.01588350e-004,
          6.81066886e-004, 7.12934241e-004, -1.95277462e-004,
          -2.62115640e-003, 3.37415084e-004, 3.43369320e-004,
          7.49850064e-004, 1.01387943e-003, 3.52570380e-004,
          1.05385971e-003, 5.70533331e-004, -2.19260971e-003,
          -2.87316623e-003, 1.05642248e-004, 6.32062962e-004,
          5.76596707e-004, 2.06398382e-003, -1.90335995e-004,
          5.91179181e-004, -6.40064900e-005, -2.74952105e-003,
          -2.11101887e-003, 3.75631382e-004, 1.18398848e-005,
          9.99457043e-005, 7.38554634e-004, -5.93192817e-005,
          1.28358940e-003, 9.32041847e-004, -1.61752792e-003,
          -2.08386895e-003, 5.28042146e-004, 9.52824659e-004,
          6.26876717e-004, 1.99741730e-003, -2.08542231e-004,
          7.09152257e-004, -1.10331821e-004, -2.09238147e-003,
          -2.20545800e-003, 1.48110863e-004, 1.24390132e-003,
          6.30918890e-004, 7.05063809e-004, 1.67982042e-004,
          7.04881502e-004, 2.62736430e-004, -1.96102867e-003,
          -2.12563388e-003, -2.21452137e-004, 8.94191675e-004,
          5.72086661e-004, 1.61184394e-003, 1.53327826e-004,
          3.37946549e-004, 1.76555332e-004, -2.05575698e-003,
          -1.55822816e-003, 7.96024571e-004, 2.13258597e-003,
          5.75840939e-004, -2.59756052e-004, 9.49913927e-004,
          1.63632678e-003, 5.72175777e-004, -1.58918963e-003,
          -2.21493165e-003, 2.50877609e-004, 1.16909540e-003,
          2.22636110e-004, 5.91544202e-004, 5.18176821e-004,
          1.15454197e-003, 6.18781836e-004, -2.25114310e-003,
          -1.28999050e-003, 2.67953092e-005, -7.00447417e-005,
          1.92780117e-005, 7.78378278e-004, -3.27155431e-004,
          2.34358420e-004, 2.13392690e-004, -1.29499927e-003,
          -1.43167109e-003, 1.86477031e-004, 3.92939488e-004,
          2.25976299e-004, 1.48318737e-004, 3.92739545e-004,
          9.10876959e-004, 6.15289202e-004, -1.56550261e-003,
          -7.61735660e-004, -2.09950449e-004, -8.85742716e-004,
          -2.60585002e-005, 1.18105323e-004, -4.48882376e-004,
          3.41660707e-005, 1.34435730e-004, -7.02272169e-004,
          -1.39515789e-003, -5.68525691e-004, 1.75407986e-004,
          3.88465007e-004, -3.10994044e-004, 3.46765242e-004,
          4.71265841e-004, 1.64522920e-004, -1.29906111e-003,
          -2.12613493e-003, 3.96117306e-004, 5.88894705e-004,
          6.20443025e-004, 1.60868303e-003, -6.06104477e-005,
          5.92985656e-004, 7.45958940e-004, -2.05252110e-003,
          -1.63075747e-003, 3.91791662e-004, 1.23247912e-003,
          7.38016155e-004, 6.63051149e-004, 8.70315009e-004,
          1.29711872e-003, 7.17453891e-004, -1.49578170e-003,
          -2.64461595e-003, -2.24124087e-004, 8.49615026e-004,
          8.24458315e-004, 5.82805777e-004, 1.22024921e-005,
          3.10085743e-004, 3.87516688e-004, -2.53830012e-003,
          -2.18981900e-003, 6.79242134e-004, 1.58467074e-003,
          8.36388441e-004, 6.18533173e-004, 4.73983877e-004,
          1.01362227e-003, 4.60498617e-004, -2.07759184e-003,
          -8.37582105e-004, -8.58300264e-005, -2.36393069e-004,
          3.44162807e-004, -2.16205418e-003, 1.48927257e-003,
          1.41337444e-003, 6.58239413e-004, -5.18372282e-004,
          -1.31956895e-003, -1.65810940e-004, -4.91626735e-004,
          7.48267688e-004, -8.09803430e-004, 1.45041989e-003,
          1.36994710e-003, 7.19450996e-004, -1.02879142e-003,
          3.00302170e-004, 5.53452002e-004, 7.66602403e-004,
          9.78813623e-004, -1.90086546e-003, 6.21616724e-004,
          1.23555749e-003, 8.63174384e-004, 8.65746231e-004,
          4.58371418e-004, 1.56926471e-004, -2.12846760e-004,
          3.81122198e-004, -1.55724713e-003, 9.49672889e-004,
          1.71842636e-003, 1.47030840e-003, 9.27627611e-004,
          -1.32811570e-003, -1.12106602e-004, 8.40698835e-004,
          1.66003674e-003, -1.22993486e-004, 8.44440307e-004,
          1.30606932e-003, 4.73124848e-004, -1.12793013e-003,
          -1.57291465e-003, -1.15502044e-003, -7.35251058e-004,
          -7.65450473e-004, -1.48835371e-003, 8.84006848e-004,
          1.28192687e-003, 1.07724445e-004, -1.27308955e-003,
          4.49992251e-004, 2.90723401e-004, 8.51441582e-004,
          1.05083687e-003, 7.78509770e-004, 6.91005844e-004,
          2.09214026e-003, 1.31589279e-003, 8.16874264e-004,
          -3.66074179e-004, -3.28248396e-004, 4.70046420e-004,
          -9.51385126e-004, -1.41972338e-003, 5.67846000e-004,
          1.50564592e-003, 4.94729145e-004, -3.58764119e-005,
          -1.11011346e-003, -1.20130775e-003, -1.19954394e-003,
          -1.03181496e-003, 5.66351577e-004, 5.78655221e-004,
          1.00256712e-003, -1.30431581e-004, -8.13384308e-004,
          8.34770733e-004, -1.00980513e-003, -5.60134824e-004,
          -1.49888988e-003, -6.43301755e-004, -3.12116434e-004,
          3.87002481e-004, 1.88723643e-004, 1.18165382e-003,
          1.96638372e-004, -7.51702755e-005, 5.70468605e-004,
          -1.82195567e-004, 7.64453085e-004, 4.20814642e-004,
          1.19352282e-003, 1.72746979e-004, 1.96761743e-004,
          1.91927073e-003, -1.08979402e-004, 8.44193972e-004,
          -1.44482008e-003, -5.99544495e-004, 6.86065978e-005,
          1.67057139e-003, 8.69978394e-004, 2.04639696e-003,
          9.91825131e-004, -3.79166799e-004, -3.39478051e-004,
          -1.16792729e-003, -1.09978998e-003, 8.91010495e-005,
          3.49792332e-004, 3.59957427e-004, 1.39858667e-003,
          3.63253639e-004, -3.97641939e-004, -3.84473620e-004,
          -5.63745911e-004, -1.20037363e-003, -1.87971691e-005,
          8.58241227e-004, 3.75141972e-004, 7.19797914e-004,
          7.97592336e-004, -2.28324498e-004, 5.38705171e-005,
          -1.44283741e-003, -5.21660899e-004, 3.48512054e-004,
          1.37363933e-003, 9.63829516e-004, 1.06790883e-003,
          5.40287474e-005, -7.96613749e-005, -3.92136892e-004,
          -2.56194442e-004, -2.44406285e-003, 4.40699863e-004,
          1.98685518e-003, 1.13250653e-003, 4.06472886e-004,
          1.07233960e-003, -4.61705022e-005, -1.56997703e-004,
          -6.48852321e-004, 8.17274849e-004, -3.96757969e-004,
          6.91733207e-004, 3.43479798e-004, 1.16480654e-003,
          9.65006358e-004, -3.02826375e-004, 1.93542466e-004,
          3.47618479e-004, -1.85520027e-003, -1.19431854e-004,
          4.27470164e-004, 9.82007259e-005, 6.87904772e-004,
          -3.97972355e-004, -1.21076264e-004, -1.86090168e-004,
          -3.44224565e-004, 5.55469713e-004, -5.16438042e-004,
          1.48337928e-003, 6.81546284e-004, 2.90969492e-005,
          -7.16621464e-004, -6.56275311e-004, 6.66895532e-004,
          3.07368202e-004, -2.34267255e-003, -6.14688324e-004,
          2.75830564e-004, -2.33445811e-004, -7.64367287e-004,
          9.72989365e-005, 8.78275168e-005, 8.61764769e-004,
          1.02689373e-003, -2.48996075e-003, 1.03341910e-004,
          6.45967259e-004, -9.34753261e-005, -6.92419053e-005,
          5.91940712e-004, 4.93740430e-004, 1.22232479e-003,
          7.62519136e-004, -1.07700122e-003, 5.67400479e-004,
